{"learner":{"attributes":{"scikit_learn":"{\"_estimator_type\": \"regressor\"}"},"feature_names":["LKP_Latitude","LKP_Longitude","Speed_knots","Heading_deg","Altitude_ft","Time_since_last_contact_min","Wind_speed_knots","Wind_direction_deg","Aircraft_Name"],"feature_types":["float","float","float","float","float","float","float","float","int"],"gradient_booster":{"model":{"gbtree_model_param":{"num_parallel_tree":"1","num_trees":"100"},"iteration_indptr":[0,1,2,3,4,5,6,7,8,9,10,11,12,13,14,15,16,17,18,19,20,21,22,23,24,25,26,27,28,29,30,31,32,33,34,35,36,37,38,39,40,41,42,43,44,45,46,47,48,49,50,51,52,53,54,55,56,57,58,59,60,61,62,63,64,65,66,67,68,69,70,71,72,73,74,75,76,77,78,79,80,81,82,83,84,85,86,87,88,89,90,91,92,93,94,95,96,97,98,99,100],"tree_info":[0,0,0,0,0,0,0,0,0,0,0,0,0,0,0,0,0,0,0,0,0,0,0,0,0,0,0,0,0,0,0,0,0,0,0,0,0,0,0,0,0,0,0,0,0,0,0,0,0,0,0,0,0,0,0,0,0,0,0,0,0,0,0,0,0,0,0,0,0,0,0,0,0,0,0,0,0,0,0,0,0,0,0,0,0,0,0,0,0,0,0,0,0,0,0,0,0,0,0,0],"trees":[{"base_weights":[1.1278639E-6,-8.9925E1,9.001556E1,-1.3492455E2,-4.4930283E1,4.5066902E1,1.3488243E2,-1.5751627E2,-1.12327515E2,-6.746438E1,-2.2411129E1,2.265541E1,6.739061E1,1.1234811E2,1.5740857E2,-1.6882504E2,-1.4621913E2,-1.2355169E2,-1.011067E2,-7.870118E1,-5.620398E1,-3.3770695E1,-1.1206999E1,1.1421577E1,3.3808907E1,5.612741E1,7.862205E1,1.01160866E2,1.2353054E2,1.4617915E2,1.686202E2,-1.7450409E2,-1.6311105E2,-1.5181989E2,-1.4060493E2,-1.2924918E2,-1.1783678E2,-1.0664465E2,-9.556246E1,-8.437688E1,-7.300708E1,-6.1848316E1,-5.0546597E1,-3.929343E1,-2.8137875E1,-1.6854841E1,-5.4667516E0,5.821293E0,1.7089386E1,2.817355E1,3.941538E1,5.0560528E1,6.1701897E1,7.3034256E1,8.419738E1,9.552456E1,1.0676253E2,1.1783081E2,1.2921092E2,1.4056989E2,1.5178935E2,1.6301128E2,1.7423628E2,-5.320709E0,-5.148552E0,-4.9777727E0,-4.8079333E0,-4.637417E0,-4.4702106E0,-4.302402E0,-4.1324887E0,-3.9623969E0,-3.7920067E0,-3.619587E0,-3.4497519E0,-3.2818325E0,-3.1161146E0,-2.9483778E0,-2.7843456E0,-2.615957E0,-2.4459033E0,-2.274034E0,-2.1063604E0,-1.9394991E0,-1.7713268E0,-1.5982283E0,-1.4338562E0,-1.2639018E0,-1.0940825E0,-9.2744195E-1,-7.5882065E-1,-5.945097E-1,-4.1939676E-1,-2.5075284E-1,-8.235934E-2,9.0745345E-2,2.5857422E-1,4.3222928E-1,5.952227E-1,7.623267E-1,9.2802656E-1,1.0989004E0,1.26602E0,1.433053E0,1.6003332E0,1.7688067E0,1.933569E0,2.1042407E0,2.2775881E0,2.4408464E0,2.6107972E0,2.7837892E0,2.947656E0,3.1188946E0,3.2866395E0,3.4491088E0,3.6200602E0,3.791228E0,3.9606335E0,4.1310434E0,4.302267E0,4.468766E0,4.6378865E0,4.806443E0,4.9731274E0,5.1421638E0,5.3110013E0],"categories":[],"categories_nodes":[],"categories_segments":[],"categories_sizes":[],"default_left":[0,0,0,0,0,0,0,0,0,0,0,0,0,0,0,0,0,0,0,0,0,0,0,0,0,0,0,0,0,0,0,0,0,0,0,0,0,0,0,0,0,0,0,0,0,0,0,0,0,0,0,0,0,0,0,0,0,0,0,0,0,0,0,0,0,0,0,0,0,0,0,0,0,0,0,0,0,0,0,0,0,0,0,0,0,0,0,0,0,0,0,0,0,0,0,0,0,0,0,0,0,0,0,0,0,0,0,0,0,0,0,0,0,0,0,0,0,0,0,0,0,0,0,0,0,0,0],"id":0,"left_children":[1,3,5,7,9,11,13,15,17,19,21,23,25,27,29,31,33,35,37,39,41,43,45,47,49,51,53,55,57,59,61,63,65,67,69,71,73,75,77,79,81,83,85,87,89,91,93,95,97,99,101,103,105,107,109,111,113,115,117,119,121,123,125,-1,-1,-1,-1,-1,-1,-1,-1,-1,-1,-1,-1,-1,-1,-1,-1,-1,-1,-1,-1,-1,-1,-1,-1,-1,-1,-1,-1,-1,-1,-1,-1,-1,-1,-1,-1,-1,-1,-1,-1,-1,-1,-1,-1,-1,-1,-1,-1,-1,-1,-1,-1,-1,-1,-1,-1,-1,-1,-1,-1,-1,-1,-1,-1],"loss_changes":[3.0241126E9,3.784E8,3.765189E8,4.7684096E7,4.742061E7,4.6661136E7,4.7411584E7,5.944576E6,5.87136E6,5.905808E6,5.948794E6,5.831416E6,5.906384E6,5.831296E6,5.857792E6,7.2896E5,7.13824E5,7.45088E5,7.0728E5,7.49344E5,7.41984E5,7.20924E5,7.6288025E5,7.359825E5,7.36776E5,7.20968E5,7.22624E5,7.27248E5,7.40992E5,7.13504E5,7.07968E5,6.5824E4,6.6752E4,6.7744E4,7.3984E4,7.752E4,7.9616E4,7.7752E4,7.8232E4,8.6888E4,8.5872E4,8.7908E4,8.4954E4,9.2324E4,8.9986E4,1.0074025E5,9.183803E4,9.1249125E4,8.475075E4,8.8074E4,8.9262E4,8.824E4,8.408E4,9.226E4,8.6816E4,7.7784E4,8.0112E4,8.0848E4,7.6496E4,7.5456E4,6.96E4,6.3776E4,6.2016E4,0E0,0E0,0E0,0E0,0E0,0E0,0E0,0E0,0E0,0E0,0E0,0E0,0E0,0E0,0E0,0E0,0E0,0E0,0E0,0E0,0E0,0E0,0E0,0E0,0E0,0E0,0E0,0E0,0E0,0E0,0E0,0E0,0E0,0E0,0E0,0E0,0E0,0E0,0E0,0E0,0E0,0E0,0E0,0E0,0E0,0E0,0E0,0E0,0E0,0E0,0E0,0E0,0E0,0E0,0E0,0E0,0E0,0E0,0E0,0E0,0E0,0E0,0E0,0E0],"parents":[2147483647,0,0,1,1,2,2,3,3,4,4,5,5,6,6,7,7,8,8,9,9,10,10,11,11,12,12,13,13,14,14,15,15,16,16,17,17,18,18,19,19,20,20,21,21,22,22,23,23,24,24,25,25,26,26,27,27,28,28,29,29,30,30,31,31,32,32,33,33,34,34,35,35,36,36,37,37,38,38,39,39,40,40,41,41,42,42,43,43,44,44,45,45,46,46,47,47,48,48,49,49,50,50,51,51,52,52,53,53,54,54,55,55,56,56,57,57,58,58,59,59,60,60,61,61,62,62],"right_children":[2,4,6,8,10,12,14,16,18,20,22,24,26,28,30,32,34,36,38,40,42,44,46,48,50,52,54,56,58,60,62,64,66,68,70,72,74,76,78,80,82,84,86,88,90,92,94,96,98,100,102,104,106,108,110,112,114,116,118,120,122,124,126,-1,-1,-1,-1,-1,-1,-1,-1,-1,-1,-1,-1,-1,-1,-1,-1,-1,-1,-1,-1,-1,-1,-1,-1,-1,-1,-1,-1,-1,-1,-1,-1,-1,-1,-1,-1,-1,-1,-1,-1,-1,-1,-1,-1,-1,-1,-1,-1,-1,-1,-1,-1,-1,-1,-1,-1,-1,-1,-1,-1,-1,-1,-1,-1],"split_conditions":[2.2331793E-3,-8.658113E-1,8.65447E-1,-1.2989942E0,-4.324089E-1,4.3301994E-1,1.2989684E0,-1.5164587E0,-1.080893E0,-6.491606E-1,-2.1822895E-1,2.1758437E-1,6.4772516E-1,1.0812082E0,1.5149322E0,-1.6240883E0,-1.4077404E0,-1.188317E0,-9.7302586E-1,-7.569616E-1,-5.4067916E-1,-3.2389426E-1,-1.06998034E-1,1.10714614E-1,3.2583728E-1,5.4101753E-1,7.567935E-1,9.734701E-1,1.1899713E0,1.4078118E0,1.6228915E0,-1.6796433E0,-1.5700153E0,-1.4612359E0,-1.353128E0,-1.2446359E0,-1.134317E0,-1.0264926E0,-9.1922843E-1,-8.116016E-1,-7.024959E-1,-5.9532636E-1,-4.8643863E-1,-3.7883523E-1,-2.6979226E-1,-1.6302566E-1,-5.412845E-2,5.5387255E-2,1.6513838E-1,2.7095956E-1,3.7994692E-1,4.8701388E-1,5.943143E-1,7.0253336E-1,8.1046647E-1,9.1987413E-1,1.0272789E0,1.1346209E0,1.2433245E0,1.352464E0,1.4610226E0,1.5685327E0,1.6766546E0,-5.320709E0,-5.148552E0,-4.9777727E0,-4.8079333E0,-4.637417E0,-4.4702106E0,-4.302402E0,-4.1324887E0,-3.9623969E0,-3.7920067E0,-3.619587E0,-3.4497519E0,-3.2818325E0,-3.1161146E0,-2.9483778E0,-2.7843456E0,-2.615957E0,-2.4459033E0,-2.274034E0,-2.1063604E0,-1.9394991E0,-1.7713268E0,-1.5982283E0,-1.4338562E0,-1.2639018E0,-1.0940825E0,-9.2744195E-1,-7.5882065E-1,-5.945097E-1,-4.1939676E-1,-2.5075284E-1,-8.235934E-2,9.0745345E-2,2.5857422E-1,4.3222928E-1,5.952227E-1,7.623267E-1,9.2802656E-1,1.0989004E0,1.26602E0,1.433053E0,1.6003332E0,1.7688067E0,1.933569E0,2.1042407E0,2.2775881E0,2.4408464E0,2.6107972E0,2.7837892E0,2.947656E0,3.1188946E0,3.2866395E0,3.4491088E0,3.6200602E0,3.791228E0,3.9606335E0,4.1310434E0,4.302267E0,4.468766E0,4.6378865E0,4.806443E0,4.9731274E0,5.1421638E0,5.3110013E0],"split_indices":[1,1,1,1,1,1,1,1,1,1,1,1,1,1,1,1,1,1,1,1,1,1,1,1,1,1,1,1,1,1,1,1,1,1,1,1,1,1,1,1,1,1,1,1,1,1,1,1,1,1,1,1,1,1,1,1,1,1,1,1,1,1,1,0,0,0,0,0,0,0,0,0,0,0,0,0,0,0,0,0,0,0,0,0,0,0,0,0,0,0,0,0,0,0,0,0,0,0,0,0,0,0,0,0,0,0,0,0,0,0,0,0,0,0,0,0,0,0,0,0,0,0,0,0,0,0,0],"split_type":[0,0,0,0,0,0,0,0,0,0,0,0,0,0,0,0,0,0,0,0,0,0,0,0,0,0,0,0,0,0,0,0,0,0,0,0,0,0,0,0,0,0,0,0,0,0,0,0,0,0,0,0,0,0,0,0,0,0,0,0,0,0,0,0,0,0,0,0,0,0,0,0,0,0,0,0,0,0,0,0,0,0,0,0,0,0,0,0,0,0,0,0,0,0,0,0,0,0,0,0,0,0,0,0,0,0,0,0,0,0,0,0,0,0,0,0,0,0,0,0,0,0,0,0,0,0,0],"sum_hessian":[3.73592E5,1.8689E5,1.86702E5,9.3439E4,9.3451E4,9.3267E4,9.3435E4,4.6722E4,4.6717E4,4.6709E4,4.6742E4,4.6543E4,4.6724E4,4.6712E4,4.6723E4,2.3342E4,2.338E4,2.335E4,2.3367E4,2.3376E4,2.3333E4,2.3209E4,2.3533E4,2.3189E4,2.3354E4,2.3332E4,2.3392E4,2.3356E4,2.3356E4,2.335E4,2.3373E4,1.1692E4,1.165E4,1.1691E4,1.1689E4,1.1682E4,1.1668E4,1.1681E4,1.1686E4,1.17E4,1.1676E4,1.1675E4,1.1658E4,1.1716E4,1.1493E4,1.1861E4,1.1672E4,1.1665E4,1.1524E4,1.165E4,1.1704E4,1.1679E4,1.1653E4,1.169E4,1.1702E4,1.1651E4,1.1705E4,1.1669E4,1.1687E4,1.1689E4,1.1661E4,1.1709E4,1.1664E4,5.849E3,5.843E3,5.829E3,5.821E3,5.873E3,5.818E3,5.868E3,5.821E3,5.837E3,5.845E3,5.843E3,5.825E3,5.847E3,5.834E3,5.862E3,5.824E3,5.861E3,5.839E3,5.826E3,5.85E3,5.829E3,5.846E3,5.845E3,5.813E3,5.838E3,5.878E3,5.81E3,5.683E3,5.839E3,6.022E3,5.658E3,6.014E3,5.835E3,5.83E3,5.839E3,5.685E3,5.828E3,5.822E3,5.859E3,5.845E3,5.84E3,5.839E3,5.847E3,5.806E3,5.85E3,5.84E3,5.859E3,5.843E3,5.842E3,5.809E3,5.864E3,5.841E3,5.832E3,5.837E3,5.839E3,5.848E3,5.839E3,5.85E3,5.833E3,5.828E3,5.845E3,5.864E3,5.828E3,5.836E3],"tree_param":{"num_deleted":"0","num_feature":"9","num_nodes":"127","size_leaf_vector":"1"}},{"base_weights":[3.8948772E-7,-8.7227715E1,8.731555E1,-1.308775E2,-4.3582603E1,4.3715126E1,1.3083665E2,-1.527916E2,-1.0895827E2,-6.5440796E1,-2.173891E1,2.1975864E1,6.536924E1,1.0897824E2,1.5268712E2,-1.6376117E2,-1.4183331E2,-1.1984577E2,-9.807402E1,-7.634055E1,-5.451815E1,-3.209499E1,-1.017286E1,1.107899E1,3.279481E1,5.4443874E1,7.626379E1,9.812656E1,1.1982526E2,1.4179453E2,1.6356245E2,-1.6926987E2,-1.5821855E2,-1.4726607E2,-1.363875E2,-1.2537237E2,-1.14302284E2,-1.0344586E2,-9.2696075E1,-8.184601E1,-7.081724E1,-5.9993183E1,-4.903046E1,-3.74545E1,-2.5945118E1,-1.5044263E1,-4.6841063E0,5.646684E0,1.6576794E1,2.732849E1,3.8233116E1,4.9043972E1,5.9851154E1,7.0843605E1,8.167189E1,9.265931E1,1.03560196E2,1.14296486E2,1.2533526E2,1.3635352E2,1.4723645E2,1.5812178E2,1.690101E2,-5.1611156E0,-4.9941225E0,-4.8284655E0,-4.66372E0,-4.498318E0,-4.336127E0,-4.1733522E0,-4.0085354E0,-3.8435452E0,-3.678266E0,-3.511018E0,-3.346277E0,-3.1833942E0,-3.0226474E0,-2.8599417E0,-2.7008297E0,-2.5374916E0,-2.372539E0,-2.2058246E0,-2.0431802E0,-1.881324E0,-1.7181962E0,-1.5502898E0,-1.3908479E0,-1.205637E0,-1.0212238E0,-8.5660756E-1,-6.9747055E-1,-5.3192747E-1,-3.6550197E-1,-2.0239632E-1,-5.6215998E-2,8.802345E-2,2.508183E-1,4.192646E-1,5.7736915E-1,7.394608E-1,9.0019053E-1,1.065939E0,1.228046E0,1.3900687E0,1.5523314E0,1.7157515E0,1.8755718E0,2.041124E0,2.2092721E0,2.3676333E0,2.5324864E0,2.70029E0,2.8592417E0,3.025344E0,3.188057E0,3.3456533E0,3.5114772E0,3.6775105E0,3.8418345E0,4.0071335E0,4.1732216E0,4.3347263E0,4.4987736E0,4.662275E0,4.8239594E0,4.987925E0,5.1516986E0],"categories":[],"categories_nodes":[],"categories_segments":[],"categories_sizes":[],"default_left":[0,0,0,0,0,0,0,0,0,0,0,0,0,0,0,0,0,0,0,0,0,0,0,0,0,0,0,0,0,0,0,0,0,0,0,0,0,0,0,0,0,0,0,0,0,0,0,0,0,0,0,0,0,0,0,0,0,0,0,0,0,0,0,0,0,0,0,0,0,0,0,0,0,0,0,0,0,0,0,0,0,0,0,0,0,0,0,0,0,0,0,0,0,0,0,0,0,0,0,0,0,0,0,0,0,0,0,0,0,0,0,0,0,0,0,0,0,0,0,0,0,0,0,0,0,0,0],"id":1,"left_children":[1,3,5,7,9,11,13,15,17,19,21,23,25,27,29,31,33,35,37,39,41,43,45,47,49,51,53,55,57,59,61,63,65,67,69,71,73,75,77,79,81,83,85,87,89,91,93,95,97,99,101,103,105,107,109,111,113,115,117,119,121,123,125,-1,-1,-1,-1,-1,-1,-1,-1,-1,-1,-1,-1,-1,-1,-1,-1,-1,-1,-1,-1,-1,-1,-1,-1,-1,-1,-1,-1,-1,-1,-1,-1,-1,-1,-1,-1,-1,-1,-1,-1,-1,-1,-1,-1,-1,-1,-1,-1,-1,-1,-1,-1,-1,-1,-1,-1,-1,-1,-1,-1,-1,-1,-1,-1],"loss_changes":[2.8454175E9,3.5604032E8,3.542706E8,4.4866304E7,4.461853E7,4.390395E7,4.460992E7,5.593216E6,5.524416E6,5.556864E6,5.5985E6,5.486838E6,5.557376E6,5.486784E6,5.51168E6,6.85952E5,6.7168E5,7.01056E5,6.65504E5,7.05056E5,6.98136E5,8.11862E5,5.903835E5,6.9249325E5,6.9324E5,6.7836E5,6.79936E5,6.84256E5,6.97184E5,6.7136E5,6.66048E5,6.192E4,6.2848E4,6.376E4,6.9616E4,7.2928E4,7.4912E4,7.316E4,7.36E4,8.1744E4,8.0792E4,8.2716E4,7.9934E4,1.21568E5,8.01205E4,8.970425E4,6.017825E4,8.585722E4,7.9743E4,8.287E4,8.3988E4,8.3028E4,7.9112E4,8.6808E4,8.168E4,7.3208E4,7.5376E4,7.6096E4,7.1968E4,7.0976E4,6.5504E4,6.0064E4,5.8336E4,0E0,0E0,0E0,0E0,0E0,0E0,0E0,0E0,0E0,0E0,0E0,0E0,0E0,0E0,0E0,0E0,0E0,0E0,0E0,0E0,0E0,0E0,0E0,0E0,0E0,0E0,0E0,0E0,0E0,0E0,0E0,0E0,0E0,0E0,0E0,0E0,0E0,0E0,0E0,0E0,0E0,0E0,0E0,0E0,0E0,0E0,0E0,0E0,0E0,0E0,0E0,0E0,0E0,0E0,0E0,0E0,0E0,0E0,0E0,0E0,0E0,0E0,0E0,0E0],"parents":[2147483647,0,0,1,1,2,2,3,3,4,4,5,5,6,6,7,7,8,8,9,9,10,10,11,11,12,12,13,13,14,14,15,15,16,16,17,17,18,18,19,19,20,20,21,21,22,22,23,23,24,24,25,25,26,26,27,27,28,28,29,29,30,30,31,31,32,32,33,33,34,34,35,35,36,36,37,37,38,38,39,39,40,40,41,41,42,42,43,43,44,44,45,45,46,46,47,47,48,48,49,49,50,50,51,51,52,52,53,53,54,54,55,55,56,56,57,57,58,58,59,59,60,60,61,61,62,62],"right_children":[2,4,6,8,10,12,14,16,18,20,22,24,26,28,30,32,34,36,38,40,42,44,46,48,50,52,54,56,58,60,62,64,66,68,70,72,74,76,78,80,82,84,86,88,90,92,94,96,98,100,102,104,106,108,110,112,114,116,118,120,122,124,126,-1,-1,-1,-1,-1,-1,-1,-1,-1,-1,-1,-1,-1,-1,-1,-1,-1,-1,-1,-1,-1,-1,-1,-1,-1,-1,-1,-1,-1,-1,-1,-1,-1,-1,-1,-1,-1,-1,-1,-1,-1,-1,-1,-1,-1,-1,-1,-1,-1,-1,-1,-1,-1,-1,-1,-1,-1,-1,-1,-1,-1,-1,-1,-1],"split_conditions":[2.2331793E-3,-8.658113E-1,8.65447E-1,-1.2989942E0,-4.324089E-1,4.3301994E-1,1.2989684E0,-1.5164587E0,-1.080893E0,-6.491606E-1,-2.0445769E-1,2.1758437E-1,6.4772516E-1,1.0812082E0,1.5149322E0,-1.6240883E0,-1.4077404E0,-1.188317E0,-9.7302586E-1,-7.569616E-1,-5.4067916E-1,-3.1081134E-1,-9.512266E-2,1.10714614E-1,3.2583728E-1,5.4101753E-1,7.567935E-1,9.734701E-1,1.1899713E0,1.4078118E0,1.6228915E0,-1.6796433E0,-1.5700153E0,-1.4612359E0,-1.353128E0,-1.2446359E0,-1.134317E0,-1.0264926E0,-9.1922843E-1,-8.116016E-1,-7.024959E-1,-5.9532636E-1,-4.8643863E-1,-3.653628E-1,-2.5613603E-1,-1.4806914E-1,-3.8797118E-2,5.5387255E-2,1.6513838E-1,2.7095956E-1,3.7994692E-1,4.8701388E-1,5.943143E-1,7.0253336E-1,8.1046647E-1,9.1987413E-1,1.0272789E0,1.1346209E0,1.2433245E0,1.352464E0,1.4610226E0,1.5685327E0,1.6766546E0,-5.1611156E0,-4.9941225E0,-4.8284655E0,-4.66372E0,-4.498318E0,-4.336127E0,-4.1733522E0,-4.0085354E0,-3.8435452E0,-3.678266E0,-3.511018E0,-3.346277E0,-3.1833942E0,-3.0226474E0,-2.8599417E0,-2.7008297E0,-2.5374916E0,-2.372539E0,-2.2058246E0,-2.0431802E0,-1.881324E0,-1.7181962E0,-1.5502898E0,-1.3908479E0,-1.205637E0,-1.0212238E0,-8.5660756E-1,-6.9747055E-1,-5.3192747E-1,-3.6550197E-1,-2.0239632E-1,-5.6215998E-2,8.802345E-2,2.508183E-1,4.192646E-1,5.7736915E-1,7.394608E-1,9.0019053E-1,1.065939E0,1.228046E0,1.3900687E0,1.5523314E0,1.7157515E0,1.8755718E0,2.041124E0,2.2092721E0,2.3676333E0,2.5324864E0,2.70029E0,2.8592417E0,3.025344E0,3.188057E0,3.3456533E0,3.5114772E0,3.6775105E0,3.8418345E0,4.0071335E0,4.1732216E0,4.3347263E0,4.4987736E0,4.662275E0,4.8239594E0,4.987925E0,5.1516986E0],"split_indices":[1,1,1,1,1,1,1,1,1,1,1,1,1,1,1,1,1,1,1,1,1,1,1,1,1,1,1,1,1,1,1,1,1,1,1,1,1,1,1,1,1,1,1,1,1,1,1,1,1,1,1,1,1,1,1,1,1,1,1,1,1,1,1,0,0,0,0,0,0,0,0,0,0,0,0,0,0,0,0,0,0,0,0,0,0,0,0,0,0,0,0,0,0,0,0,0,0,0,0,0,0,0,0,0,0,0,0,0,0,0,0,0,0,0,0,0,0,0,0,0,0,0,0,0,0,0,0],"split_type":[0,0,0,0,0,0,0,0,0,0,0,0,0,0,0,0,0,0,0,0,0,0,0,0,0,0,0,0,0,0,0,0,0,0,0,0,0,0,0,0,0,0,0,0,0,0,0,0,0,0,0,0,0,0,0,0,0,0,0,0,0,0,0,0,0,0,0,0,0,0,0,0,0,0,0,0,0,0,0,0,0,0,0,0,0,0,0,0,0,0,0,0,0,0,0,0,0,0,0,0,0,0,0,0,0,0,0,0,0,0,0,0,0,0,0,0,0,0,0,0,0,0,0,0,0,0,0],"sum_hessian":[3.73592E5,1.8689E5,1.86702E5,9.3439E4,9.3451E4,9.3267E4,9.3435E4,4.6722E4,4.6717E4,4.6709E4,4.6742E4,4.6543E4,4.6724E4,4.6712E4,4.6723E4,2.3342E4,2.338E4,2.335E4,2.3367E4,2.3376E4,2.3333E4,2.466E4,2.2082E4,2.3189E4,2.3354E4,2.3332E4,2.3392E4,2.3356E4,2.3356E4,2.335E4,2.3373E4,1.1692E4,1.165E4,1.1691E4,1.1689E4,1.1682E4,1.1668E4,1.1681E4,1.1686E4,1.17E4,1.1676E4,1.1675E4,1.1658E4,1.3174E4,1.1486E4,1.1698E4,1.0384E4,1.1665E4,1.1524E4,1.165E4,1.1704E4,1.1679E4,1.1653E4,1.169E4,1.1702E4,1.1651E4,1.1705E4,1.1669E4,1.1687E4,1.1689E4,1.1661E4,1.1709E4,1.1664E4,5.849E3,5.843E3,5.829E3,5.821E3,5.873E3,5.818E3,5.868E3,5.821E3,5.837E3,5.845E3,5.843E3,5.825E3,5.847E3,5.834E3,5.862E3,5.824E3,5.861E3,5.839E3,5.826E3,5.85E3,5.829E3,5.846E3,5.845E3,5.813E3,7.31E3,5.864E3,5.833E3,5.653E3,6.03E3,5.668E3,5.988E3,4.396E3,5.835E3,5.83E3,5.839E3,5.685E3,5.828E3,5.822E3,5.859E3,5.845E3,5.84E3,5.839E3,5.847E3,5.806E3,5.85E3,5.84E3,5.859E3,5.843E3,5.842E3,5.809E3,5.864E3,5.841E3,5.832E3,5.837E3,5.839E3,5.848E3,5.839E3,5.85E3,5.833E3,5.828E3,5.845E3,5.864E3,5.828E3,5.836E3],"tree_param":{"num_deleted":"0","num_feature":"9","num_nodes":"127","size_leaf_vector":"1"}},{"base_weights":[3.6987907E-7,-8.4611336E1,8.469653E1,-1.2695185E2,-4.2275345E1,4.2403896E1,1.26912224E2,-1.4820863E2,-1.0569008E2,-6.347791E1,-2.108685E1,2.1316702E1,6.3408497E1,1.0570945E2,1.4810728E2,-1.5884917E2,-1.3757904E2,-1.1693507E2,-9.5766785E1,-7.405073E1,-5.288289E1,-3.1778475E1,-1.0541523E1,1.0746677E1,3.1811138E1,5.281084E1,7.3976265E1,9.582091E1,1.1691471E2,1.3754141E2,1.5865642E2,-1.6419264E2,-1.5347281E2,-1.4284885E2,-1.3229659E2,-1.222978E2,-1.1221851E2,-1.01624756E2,-9.056157E1,-7.9391045E1,-6.869309E1,-5.8193695E1,-4.75598E1,-3.6978645E1,-2.6474648E1,-1.5858601E1,-5.137452E0,5.4773126E0,1.6079576E1,2.7140556E1,3.7808098E1,4.7572903E1,5.8055927E1,6.871866E1,7.922215E1,9.054037E1,1.0175664E2,1.1222985E2,1.2224924E2,1.3226361E2,1.4282011E2,1.5337894E2,1.6394066E2,-5.006308E0,-4.844324E0,-4.6836357E0,-4.523833E0,-4.363392E0,-4.2060657E0,-4.048173E0,-3.8883E0,-3.5952709E0,-3.7371402E0,-3.4450839E0,-3.2878942E0,-3.1260338E0,-2.9706633E0,-2.8134599E0,-2.6392379E0,-2.4613798E0,-2.3013747E0,-2.139661E0,-1.9818953E0,-1.8248941E0,-1.666659E0,-1.503789E0,-1.3491297E0,-1.1898285E0,-1.029249E0,-8.726906E-1,-7.138957E-1,-5.594885E-1,-3.9449257E-1,-2.3604706E-1,-7.702311E-2,8.53832E-2,2.4329506E-1,4.0668884E-1,5.6005114E-1,7.3521745E-1,9.119883E-1,1.2028259E0,1.063586E0,1.3483739E0,1.5057694E0,1.6642878E0,1.8193142E0,1.9799011E0,2.1430054E0,2.2966166E0,2.4565248E0,2.6363473E0,2.8145154E0,2.9745946E0,3.1304142E0,3.2845213E0,3.4487486E0,3.6059506E0,3.7482855E0,3.88694E0,4.0480456E0,4.2047067E0,4.3638334E0,4.5224304E0,4.679265E0,4.838313E0,4.997174E0],"categories":[],"categories_nodes":[],"categories_segments":[],"categories_sizes":[],"default_left":[0,0,0,0,0,0,0,0,0,0,0,0,0,0,0,0,0,0,0,0,0,0,0,0,0,0,0,0,0,0,0,0,0,0,0,0,0,0,0,0,0,0,0,0,0,0,0,0,0,0,0,0,0,0,0,0,0,0,0,0,0,0,0,0,0,0,0,0,0,0,0,0,0,0,0,0,0,0,0,0,0,0,0,0,0,0,0,0,0,0,0,0,0,0,0,0,0,0,0,0,0,0,0,0,0,0,0,0,0,0,0,0,0,0,0,0,0,0,0,0,0,0,0,0,0,0,0],"id":2,"left_children":[1,3,5,7,9,11,13,15,17,19,21,23,25,27,29,31,33,35,37,39,41,43,45,47,49,51,53,55,57,59,61,63,65,67,69,71,73,75,77,79,81,83,85,87,89,91,93,95,97,99,101,103,105,107,109,111,113,115,117,119,121,123,125,-1,-1,-1,-1,-1,-1,-1,-1,-1,-1,-1,-1,-1,-1,-1,-1,-1,-1,-1,-1,-1,-1,-1,-1,-1,-1,-1,-1,-1,-1,-1,-1,-1,-1,-1,-1,-1,-1,-1,-1,-1,-1,-1,-1,-1,-1,-1,-1,-1,-1,-1,-1,-1,-1,-1,-1,-1,-1,-1,-1,-1,-1,-1,-1],"loss_changes":[2.6772818E9,3.3500186E8,3.3333658E8,4.221517E7,4.1982016E7,4.1309664E7,4.197389E7,5.26272E6,5.20192E6,5.228496E6,5.269784E6,5.162618E6,5.228992E6,5.1648E6,5.186112E6,6.45376E5,6.31936E5,5.40096E5,7.47696E5,6.634E5,6.56884E5,6.3917E5,6.76141E5,6.51574E5,6.53132E5,6.38276E5,6.39744E5,7.68736E5,5.3344E5,6.31648E5,6.26624E5,5.8304E4,5.9136E4,6E4,6.5504E4,4.2208E4,6.7456E4,6.7944E4,1.01328E5,7.6912E4,7.6016E4,7.7828E4,7.521E4,8.2565E4,7.9805E4,8.943675E4,8.190269E4,8.078394E4,7.503125E4,1.11964E5,5.3621E4,7.812E4,7.4436E4,8.1676E4,7.6864E4,1.06416E5,6.84E4,7.4816E4,4.1472E4,6.6784E4,6.1632E4,5.648E4,5.4912E4,0E0,0E0,0E0,0E0,0E0,0E0,0E0,0E0,0E0,0E0,0E0,0E0,0E0,0E0,0E0,0E0,0E0,0E0,0E0,0E0,0E0,0E0,0E0,0E0,0E0,0E0,0E0,0E0,0E0,0E0,0E0,0E0,0E0,0E0,0E0,0E0,0E0,0E0,0E0,0E0,0E0,0E0,0E0,0E0,0E0,0E0,0E0,0E0,0E0,0E0,0E0,0E0,0E0,0E0,0E0,0E0,0E0,0E0,0E0,0E0,0E0,0E0,0E0,0E0],"parents":[2147483647,0,0,1,1,2,2,3,3,4,4,5,5,6,6,7,7,8,8,9,9,10,10,11,11,12,12,13,13,14,14,15,15,16,16,17,17,18,18,19,19,20,20,21,21,22,22,23,23,24,24,25,25,26,26,27,27,28,28,29,29,30,30,31,31,32,32,33,33,34,34,35,35,36,36,37,37,38,38,39,39,40,40,41,41,42,42,43,43,44,44,45,45,46,46,47,47,48,48,49,49,50,50,51,51,52,52,53,53,54,54,55,55,56,56,57,57,58,58,59,59,60,60,61,61,62,62],"right_children":[2,4,6,8,10,12,14,16,18,20,22,24,26,28,30,32,34,36,38,40,42,44,46,48,50,52,54,56,58,60,62,64,66,68,70,72,74,76,78,80,82,84,86,88,90,92,94,96,98,100,102,104,106,108,110,112,114,116,118,120,122,124,126,-1,-1,-1,-1,-1,-1,-1,-1,-1,-1,-1,-1,-1,-1,-1,-1,-1,-1,-1,-1,-1,-1,-1,-1,-1,-1,-1,-1,-1,-1,-1,-1,-1,-1,-1,-1,-1,-1,-1,-1,-1,-1,-1,-1,-1,-1,-1,-1,-1,-1,-1,-1,-1,-1,-1,-1,-1,-1,-1,-1,-1,-1,-1,-1],"split_conditions":[2.2331793E-3,-8.658113E-1,8.65447E-1,-1.2989942E0,-4.324089E-1,4.3301994E-1,1.2989684E0,-1.5164587E0,-1.093821E0,-6.491606E-1,-2.1822895E-1,2.1758437E-1,6.4772516E-1,1.0944327E0,1.5149322E0,-1.6240883E0,-1.4077404E0,-1.2019044E0,-9.866121E-1,-7.569616E-1,-5.4067916E-1,-3.2389426E-1,-1.06998034E-1,1.10714614E-1,3.3968058E-1,5.4101753E-1,7.567935E-1,9.8697007E-1,1.2030828E0,1.4078118E0,1.6228915E0,-1.6796433E0,-1.5700153E0,-1.4612359E0,-1.353128E0,-6.677389E-2,-1.148304E0,-1.0403491E0,-9.328864E-1,-8.116016E-1,-7.024959E-1,-5.9532636E-1,-4.8643863E-1,-3.7883523E-1,-2.6979226E-1,-1.6302566E-1,-5.412845E-2,5.5387255E-2,1.6513838E-1,2.8485426E-1,1.4643587E-2,4.8701388E-1,5.943143E-1,7.0253336E-1,8.1046647E-1,9.3295616E-1,1.0403972E0,1.1484824E0,1.2572491E0,1.352464E0,1.4610226E0,1.5685327E0,1.6766546E0,-5.006308E0,-4.844324E0,-4.6836357E0,-4.523833E0,-4.363392E0,-4.2060657E0,-4.048173E0,-3.8883E0,-3.5952709E0,-3.7371402E0,-3.4450839E0,-3.2878942E0,-3.1260338E0,-2.9706633E0,-2.8134599E0,-2.6392379E0,-2.4613798E0,-2.3013747E0,-2.139661E0,-1.9818953E0,-1.8248941E0,-1.666659E0,-1.503789E0,-1.3491297E0,-1.1898285E0,-1.029249E0,-8.726906E-1,-7.138957E-1,-5.594885E-1,-3.9449257E-1,-2.3604706E-1,-7.702311E-2,8.53832E-2,2.4329506E-1,4.0668884E-1,5.6005114E-1,7.3521745E-1,9.119883E-1,1.2028259E0,1.063586E0,1.3483739E0,1.5057694E0,1.6642878E0,1.8193142E0,1.9799011E0,2.1430054E0,2.2966166E0,2.4565248E0,2.6363473E0,2.8145154E0,2.9745946E0,3.1304142E0,3.2845213E0,3.4487486E0,3.6059506E0,3.7482855E0,3.88694E0,4.0480456E0,4.2047067E0,4.3638334E0,4.5224304E0,4.679265E0,4.838313E0,4.997174E0],"split_indices":[1,1,1,1,1,1,1,1,1,1,1,1,1,1,1,1,1,1,1,1,1,1,1,1,1,1,1,1,1,1,1,1,1,1,1,3,1,1,1,1,1,1,1,1,1,1,1,1,1,1,3,1,1,1,1,1,1,1,1,1,1,1,1,0,0,0,0,0,0,0,0,0,0,0,0,0,0,0,0,0,0,0,0,0,0,0,0,0,0,0,0,0,0,0,0,0,0,0,0,0,0,0,0,0,0,0,0,0,0,0,0,0,0,0,0,0,0,0,0,0,0,0,0,0,0,0,0],"split_type":[0,0,0,0,0,0,0,0,0,0,0,0,0,0,0,0,0,0,0,0,0,0,0,0,0,0,0,0,0,0,0,0,0,0,0,0,0,0,0,0,0,0,0,0,0,0,0,0,0,0,0,0,0,0,0,0,0,0,0,0,0,0,0,0,0,0,0,0,0,0,0,0,0,0,0,0,0,0,0,0,0,0,0,0,0,0,0,0,0,0,0,0,0,0,0,0,0,0,0,0,0,0,0,0,0,0,0,0,0,0,0,0,0,0,0,0,0,0,0,0,0,0,0,0,0,0,0],"sum_hessian":[3.73592E5,1.8689E5,1.86702E5,9.3439E4,9.3451E4,9.3267E4,9.3435E4,4.6722E4,4.6717E4,4.6709E4,4.6742E4,4.6543E4,4.6724E4,4.6712E4,4.6723E4,2.3342E4,2.338E4,2.1895E4,2.4822E4,2.3376E4,2.3333E4,2.3209E4,2.3533E4,2.3189E4,2.3354E4,2.3332E4,2.3392E4,2.4819E4,2.1893E4,2.335E4,2.3373E4,1.1692E4,1.165E4,1.1691E4,1.1689E4,1.0234E4,1.1661E4,1.167E4,1.3152E4,1.17E4,1.1676E4,1.1675E4,1.1658E4,1.1716E4,1.1493E4,1.1861E4,1.1672E4,1.1665E4,1.1524E4,1.3132E4,1.0222E4,1.1679E4,1.1653E4,1.169E4,1.1702E4,1.3143E4,1.1676E4,1.1668E4,1.0225E4,1.1689E4,1.1661E4,1.1709E4,1.1664E4,5.849E3,5.843E3,5.829E3,5.821E3,5.873E3,5.818E3,5.868E3,5.821E3,4.946E3,5.288E3,5.814E3,5.847E3,5.845E3,5.825E3,5.843E3,7.309E3,5.861E3,5.839E3,5.826E3,5.85E3,5.829E3,5.846E3,5.845E3,5.813E3,5.838E3,5.878E3,5.81E3,5.683E3,5.839E3,6.022E3,5.658E3,6.014E3,5.835E3,5.83E3,5.839E3,5.685E3,7.268E3,5.864E3,5.179E3,5.043E3,5.84E3,5.839E3,5.847E3,5.806E3,5.85E3,5.84E3,5.859E3,5.843E3,7.267E3,5.876E3,5.843E3,5.833E3,5.836E3,5.832E3,5.831E3,4.394E3,5.839E3,5.85E3,5.833E3,5.828E3,5.845E3,5.864E3,5.828E3,5.836E3],"tree_param":{"num_deleted":"0","num_feature":"9","num_nodes":"127","size_leaf_vector":"1"}},{"base_weights":[1.708755E-6,-8.207343E1,8.2156075E1,-1.2314395E2,-4.1007305E1,4.1132E1,1.23105515E2,-1.4376314E2,-1.0251993E2,-6.15739E1,-2.0454351E1,2.0677313E1,6.150657E1,1.0253872E2,1.4366483E2,-1.5408452E2,-1.3345238E2,-1.1342766E2,-9.289425E1,-7.182958E1,-5.1296673E1,-3.020227E1,-9.567521E0,1.0424333E1,3.085697E1,5.1226784E1,7.1757355E1,9.232515E1,1.12747894E2,1.334159E2,1.5389755E2,-1.592677E2,-1.4886943E2,-1.385641E2,-1.2832835E2,-1.1862958E2,-1.0885254E2,-9.794277E1,-8.721141E1,-7.700972E1,-6.663265E1,-5.6448185E1,-4.613325E1,-3.524803E1,-2.4412409E1,-1.4154112E1,-4.3996754E0,5.313021E0,1.5597273E1,2.5707136E1,3.598041E1,4.614596E1,5.631455E1,6.6657455E1,7.6845894E1,8.717685E1,9.744182E1,1.0754176E2,1.17936356E2,1.2829637E2,1.3853625E2,1.4877835E2,1.5902328E2,-4.8561444E0,-4.699019E0,-4.543151E0,-4.388141E0,-4.232512E0,-4.079905E0,-3.9267485E0,-3.771671E0,-3.6399372E0,-3.497707E0,-3.3417492E0,-3.1892743E0,-3.0322685E0,-2.8625317E0,-2.6910925E0,-2.5406551E0,-2.387551E0,-2.2323453E0,-2.0754824E0,-1.9224488E0,-1.7701567E0,-1.6166677E0,-1.4586831E0,-1.3086628E0,-1.1347529E0,-9.608878E-1,-8.059468E-1,-6.563259E-1,-5.0053805E-1,-3.4378612E-1,-5.9453618E-2,-2.0259947E-1,8.2822144E-2,2.3599745E-1,3.721054E-1,5.264497E-1,6.9522804E-1,8.471459E-1,1.0016254E0,1.1572008E0,1.3079295E0,1.4606041E0,1.6143676E0,1.7647444E0,1.920514E0,2.0787263E0,2.22773E0,2.3828418E0,2.540218E0,2.6903694E0,2.8465981E0,2.9997125E0,3.1479418E0,3.303944E0,3.4602249E0,3.6152318E0,3.7703516E0,3.9266253E0,4.078587E0,4.232941E0,4.3867807E0,4.5389113E0,4.693189E0,4.8472853E0],"categories":[],"categories_nodes":[],"categories_segments":[],"categories_sizes":[],"default_left":[0,0,0,0,0,0,0,0,0,0,0,0,0,0,0,0,0,0,0,0,0,0,0,0,0,0,0,0,0,0,0,0,0,0,0,0,0,0,0,0,0,0,0,0,0,0,0,0,0,0,0,0,0,0,0,0,0,0,0,0,0,0,0,0,0,0,0,0,0,0,0,0,0,0,0,0,0,0,0,0,0,0,0,0,0,0,0,0,0,0,0,0,0,0,0,0,0,0,0,0,0,0,0,0,0,0,0,0,0,0,0,0,0,0,0,0,0,0,0,0,0,0,0,0,0,0,0],"id":3,"left_children":[1,3,5,7,9,11,13,15,17,19,21,23,25,27,29,31,33,35,37,39,41,43,45,47,49,51,53,55,57,59,61,63,65,67,69,71,73,75,77,79,81,83,85,87,89,91,93,95,97,99,101,103,105,107,109,111,113,115,117,119,121,123,125,-1,-1,-1,-1,-1,-1,-1,-1,-1,-1,-1,-1,-1,-1,-1,-1,-1,-1,-1,-1,-1,-1,-1,-1,-1,-1,-1,-1,-1,-1,-1,-1,-1,-1,-1,-1,-1,-1,-1,-1,-1,-1,-1,-1,-1,-1,-1,-1,-1,-1,-1,-1,-1,-1,-1,-1,-1,-1,-1,-1,-1,-1,-1,-1],"loss_changes":[2.5190812E9,3.1520666E8,3.1363968E8,3.9720704E7,3.9501296E7,3.886867E7,3.949376E7,4.95168E6,4.89456E6,4.919536E6,4.960262E6,4.857562E6,4.920016E6,4.860448E6,4.879552E6,6.07296E5,5.94624E5,5.08192E5,7.03632E5,6.24208E5,6.18068E5,7.19592E5,5.2336662E5,6.13073E5,6.15292E5,6.0056E5,6.01952E5,6.068E5,6.1824E5,5.94336E5,5.89632E5,5.4848E4,5.5616E4,5.6464E4,6.1632E4,4.2256E4,6.3472E4,9.428E4,6.588E4,7.2368E4,7.1532E4,7.3228E4,7.0766E4,1.08063E5,7.0824E4,7.95795E4,5.9085984E4,7.601041E4,7.159675E4,7.4039E4,7.7408E4,7.3504E4,7.004E4,7.6856E4,7.2312E4,6.5376E4,6.6736E4,6.7344E4,6.4112E4,6.2848E4,5.8E4,5.3152E4,5.1712E4,0E0,0E0,0E0,0E0,0E0,0E0,0E0,0E0,0E0,0E0,0E0,0E0,0E0,0E0,0E0,0E0,0E0,0E0,0E0,0E0,0E0,0E0,0E0,0E0,0E0,0E0,0E0,0E0,0E0,0E0,0E0,0E0,0E0,0E0,0E0,0E0,0E0,0E0,0E0,0E0,0E0,0E0,0E0,0E0,0E0,0E0,0E0,0E0,0E0,0E0,0E0,0E0,0E0,0E0,0E0,0E0,0E0,0E0,0E0,0E0,0E0,0E0,0E0,0E0],"parents":[2147483647,0,0,1,1,2,2,3,3,4,4,5,5,6,6,7,7,8,8,9,9,10,10,11,11,12,12,13,13,14,14,15,15,16,16,17,17,18,18,19,19,20,20,21,21,22,22,23,23,24,24,25,25,26,26,27,27,28,28,29,29,30,30,31,31,32,32,33,33,34,34,35,35,36,36,37,37,38,38,39,39,40,40,41,41,42,42,43,43,44,44,45,45,46,46,47,47,48,48,49,49,50,50,51,51,52,52,53,53,54,54,55,55,56,56,57,57,58,58,59,59,60,60,61,61,62,62],"right_children":[2,4,6,8,10,12,14,16,18,20,22,24,26,28,30,32,34,36,38,40,42,44,46,48,50,52,54,56,58,60,62,64,66,68,70,72,74,76,78,80,82,84,86,88,90,92,94,96,98,100,102,104,106,108,110,112,114,116,118,120,122,124,126,-1,-1,-1,-1,-1,-1,-1,-1,-1,-1,-1,-1,-1,-1,-1,-1,-1,-1,-1,-1,-1,-1,-1,-1,-1,-1,-1,-1,-1,-1,-1,-1,-1,-1,-1,-1,-1,-1,-1,-1,-1,-1,-1,-1,-1,-1,-1,-1,-1,-1,-1,-1,-1,-1,-1,-1,-1,-1,-1,-1,-1,-1,-1,-1],"split_conditions":[2.2331793E-3,-8.658113E-1,8.65447E-1,-1.2989942E0,-4.324089E-1,4.3301994E-1,1.2989684E0,-1.5164587E0,-1.093821E0,-6.491606E-1,-2.0445769E-1,2.1758437E-1,6.4772516E-1,1.0812082E0,1.5149322E0,-1.6240883E0,-1.4077404E0,-1.2019044E0,-9.7302586E-1,-7.569616E-1,-5.4067916E-1,-3.1081134E-1,-9.512266E-2,1.10714614E-1,3.2583728E-1,5.4101753E-1,7.567935E-1,9.734701E-1,1.1899713E0,1.4078118E0,1.6228915E0,-1.6796433E0,-1.5700153E0,-1.4612359E0,-1.353128E0,-1.2587007E0,-1.148304E0,-1.0403491E0,-9.1922843E-1,-8.116016E-1,-7.024959E-1,-5.9532636E-1,-4.8643863E-1,-3.653628E-1,-2.5613603E-1,-1.4806914E-1,-1.2427217E-2,5.5387255E-2,1.519256E-1,2.7095956E-1,3.7994692E-1,4.8701388E-1,5.943143E-1,7.0253336E-1,8.1046647E-1,9.1987413E-1,1.0272789E0,1.1346209E0,1.2433245E0,1.352464E0,1.4610226E0,1.5685327E0,1.6766546E0,-4.8561444E0,-4.699019E0,-4.543151E0,-4.388141E0,-4.232512E0,-4.079905E0,-3.9267485E0,-3.771671E0,-3.6399372E0,-3.497707E0,-3.3417492E0,-3.1892743E0,-3.0322685E0,-2.8625317E0,-2.6910925E0,-2.5406551E0,-2.387551E0,-2.2323453E0,-2.0754824E0,-1.9224488E0,-1.7701567E0,-1.6166677E0,-1.4586831E0,-1.3086628E0,-1.1347529E0,-9.608878E-1,-8.059468E-1,-6.563259E-1,-5.0053805E-1,-3.4378612E-1,-5.9453618E-2,-2.0259947E-1,8.2822144E-2,2.3599745E-1,3.721054E-1,5.264497E-1,6.9522804E-1,8.471459E-1,1.0016254E0,1.1572008E0,1.3079295E0,1.4606041E0,1.6143676E0,1.7647444E0,1.920514E0,2.0787263E0,2.22773E0,2.3828418E0,2.540218E0,2.6903694E0,2.8465981E0,2.9997125E0,3.1479418E0,3.303944E0,3.4602249E0,3.6152318E0,3.7703516E0,3.9266253E0,4.078587E0,4.232941E0,4.3867807E0,4.5389113E0,4.693189E0,4.8472853E0],"split_indices":[1,1,1,1,1,1,1,1,1,1,1,1,1,1,1,1,1,1,1,1,1,1,1,1,1,1,1,1,1,1,1,1,1,1,1,1,1,1,1,1,1,1,1,1,1,1,3,1,1,1,1,1,1,1,1,1,1,1,1,1,1,1,1,0,0,0,0,0,0,0,0,0,0,0,0,0,0,0,0,0,0,0,0,0,0,0,0,0,0,0,0,0,0,0,0,0,0,0,0,0,0,0,0,0,0,0,0,0,0,0,0,0,0,0,0,0,0,0,0,0,0,0,0,0,0,0,0],"split_type":[0,0,0,0,0,0,0,0,0,0,0,0,0,0,0,0,0,0,0,0,0,0,0,0,0,0,0,0,0,0,0,0,0,0,0,0,0,0,0,0,0,0,0,0,0,0,0,0,0,0,0,0,0,0,0,0,0,0,0,0,0,0,0,0,0,0,0,0,0,0,0,0,0,0,0,0,0,0,0,0,0,0,0,0,0,0,0,0,0,0,0,0,0,0,0,0,0,0,0,0,0,0,0,0,0,0,0,0,0,0,0,0,0,0,0,0,0,0,0,0,0,0,0,0,0,0,0],"sum_hessian":[3.73592E5,1.8689E5,1.86702E5,9.3439E4,9.3451E4,9.3267E4,9.3435E4,4.6722E4,4.6717E4,4.6709E4,4.6742E4,4.6543E4,4.6724E4,4.6712E4,4.6723E4,2.3342E4,2.338E4,2.1895E4,2.4822E4,2.3376E4,2.3333E4,2.466E4,2.2082E4,2.3189E4,2.3354E4,2.3332E4,2.3392E4,2.3356E4,2.3356E4,2.335E4,2.3373E4,1.1692E4,1.165E4,1.1691E4,1.1689E4,1.0234E4,1.1661E4,1.3136E4,1.1686E4,1.17E4,1.1676E4,1.1675E4,1.1658E4,1.3174E4,1.1486E4,1.1698E4,1.0384E4,1.1665E4,1.1524E4,1.165E4,1.1704E4,1.1679E4,1.1653E4,1.169E4,1.1702E4,1.1651E4,1.1705E4,1.1669E4,1.1687E4,1.1689E4,1.1661E4,1.1709E4,1.1664E4,5.849E3,5.843E3,5.829E3,5.821E3,5.873E3,5.818E3,5.868E3,5.821E3,4.377E3,5.857E3,5.814E3,5.847E3,5.845E3,7.291E3,5.862E3,5.824E3,5.861E3,5.839E3,5.826E3,5.85E3,5.829E3,5.846E3,5.845E3,5.813E3,7.31E3,5.864E3,5.833E3,5.653E3,6.03E3,5.668E3,5.123E3,5.261E3,5.835E3,5.83E3,4.373E3,7.151E3,5.828E3,5.822E3,5.859E3,5.845E3,5.84E3,5.839E3,5.847E3,5.806E3,5.85E3,5.84E3,5.859E3,5.843E3,5.842E3,5.809E3,5.864E3,5.841E3,5.832E3,5.837E3,5.839E3,5.848E3,5.839E3,5.85E3,5.833E3,5.828E3,5.845E3,5.864E3,5.828E3,5.836E3],"tree_param":{"num_deleted":"0","num_feature":"9","num_nodes":"127","size_leaf_vector":"1"}},{"base_weights":[1.1027072E-6,-8.023779E1,7.9071106E1,-1.20075874E2,-4.1025524E1,3.8658073E1,1.1879675E2,-1.4008052E2,-1.00684944E2,-6.096231E1,-2.1084873E1,1.8815388E1,5.8425198E1,9.8209984E1,1.3873276E2,-1.500905E2,-1.3069664E2,-1.10634766E2,-9.07372E1,-7.09249E1,-5.1002235E1,-3.1068975E1,-1.1107984E1,8.850031E0,2.8689587E1,4.8461685E1,6.8363205E1,8.830708E1,1.0810485E2,1.281666E2,1.4867252E2,-1.5515848E2,-1.4565663E2,-1.3566705E2,-1.2572652E2,-1.16335815E2,-1.0618151E2,-9.562925E1,-8.584659E1,-7.5954155E1,-6.5880936E1,-5.600494E1,-4.5989166E1,-3.604789E1,-2.6073307E1,-1.6119844E1,-6.086587E0,3.911831E0,1.3854838E1,2.3694471E1,3.3673286E1,4.352632E1,5.339882E1,6.3409294E1,7.33062E1,8.332133E1,9.3253784E1,1.0309958E2,1.1311417E2,1.2318191E2,1.3314374E2,1.4306512E2,1.5365108E2,-4.58345E0,-4.723689E0,-4.4450555E0,-4.2933483E0,-4.1440363E0,-3.994611E0,-3.845195E0,-3.6973214E0,-3.4210818E0,-3.5555716E0,-3.2777617E0,-3.1113505E0,-2.9413161E0,-2.7956975E0,-2.6470613E0,-2.5033674E0,-2.35337E0,-2.2030394E0,-2.0507739E0,-1.9014492E0,-1.755785E0,-1.6043017E0,-1.4530429E0,-1.306096E0,-1.157665E0,-1.0052581E0,-8.5755527E-1,-7.0664424E-1,-5.623996E-1,-4.091498E-1,-2.6047844E-1,-1.0950798E-1,4.0745698E-2,1.8966725E-1,3.4344274E-1,4.8991355E-1,6.3666314E-1,7.848327E-1,9.34877E-1,1.085489E0,1.2316945E0,1.3795977E0,1.5289812E0,1.6750615E0,1.8249264E0,1.9791607E0,2.1236033E0,2.2746122E0,2.4251878E0,2.5734835E0,2.7237844E0,2.8713682E0,3.0177183E0,3.1681E0,3.3183508E0,3.4677122E0,3.6193383E0,3.7710736E0,3.919637E0,4.068482E0,4.2176785E0,4.365596E0,4.514955E0,4.684762E0],"categories":[],"categories_nodes":[],"categories_segments":[],"categories_sizes":[],"default_left":[0,0,0,0,0,0,0,0,0,0,0,0,0,0,0,0,0,0,0,0,0,0,0,0,0,0,0,0,0,0,0,0,0,0,0,0,0,0,0,0,0,0,0,0,0,0,0,0,0,0,0,0,0,0,0,0,0,0,0,0,0,0,0,0,0,0,0,0,0,0,0,0,0,0,0,0,0,0,0,0,0,0,0,0,0,0,0,0,0,0,0,0,0,0,0,0,0,0,0,0,0,0,0,0,0,0,0,0,0,0,0,0,0,0,0,0,0,0,0,0,0,0,0,0,0,0,0],"id":4,"left_children":[1,3,5,7,9,11,13,15,17,19,21,23,25,27,29,31,33,35,37,39,41,43,45,47,49,51,53,55,57,59,61,63,65,67,69,71,73,75,77,79,81,83,85,87,89,91,93,95,97,99,101,103,105,107,109,111,113,115,117,119,121,123,125,-1,-1,-1,-1,-1,-1,-1,-1,-1,-1,-1,-1,-1,-1,-1,-1,-1,-1,-1,-1,-1,-1,-1,-1,-1,-1,-1,-1,-1,-1,-1,-1,-1,-1,-1,-1,-1,-1,-1,-1,-1,-1,-1,-1,-1,-1,-1,-1,-1,-1,-1,-1,-1,-1,-1,-1,-1,-1,-1,-1,-1,-1,-1,-1],"loss_changes":[2.3702636E9,2.8966144E8,3.0208192E8,3.566579E7,3.7149984E7,3.6585216E7,3.893043E7,4.232768E6,4.613216E6,4.633216E6,4.653646E6,4.580361E6,4.623472E6,4.56512E6,5.04352E6,4.69472E5,5.60352E5,5.80416E5,5.50736E5,5.87552E5,5.83544E5,5.79894E5,5.880695E5,5.725864E5,5.81278E5,5.66316E5,5.68128E5,5.67856E5,5.73728E5,5.63488E5,6.71232E5,3.1648E4,5.3568E4,5.4016E4,5.528E4,3.784E4,8.8384E4,5.9608E4,5.9704E4,6.7624E4,6.7948E4,7.1404E4,6.7942E4,7.4153E4,7.309E4,7.598425E4,7.381616E4,7.178711E4,6.837375E4,7.06805E4,7.2607E4,6.9062E4,6.6282E4,7.3232E4,6.8756E4,6.412E4,6.2144E4,6.2816E4,5.9472E4,5.96E4,5.416E4,5.0608E4,8.0384E4,0E0,0E0,0E0,0E0,0E0,0E0,0E0,0E0,0E0,0E0,0E0,0E0,0E0,0E0,0E0,0E0,0E0,0E0,0E0,0E0,0E0,0E0,0E0,0E0,0E0,0E0,0E0,0E0,0E0,0E0,0E0,0E0,0E0,0E0,0E0,0E0,0E0,0E0,0E0,0E0,0E0,0E0,0E0,0E0,0E0,0E0,0E0,0E0,0E0,0E0,0E0,0E0,0E0,0E0,0E0,0E0,0E0,0E0,0E0,0E0,0E0,0E0,0E0,0E0],"parents":[2147483647,0,0,1,1,2,2,3,3,4,4,5,5,6,6,7,7,8,8,9,9,10,10,11,11,12,12,13,13,14,14,15,15,16,16,17,17,18,18,19,19,20,20,21,21,22,22,23,23,24,24,25,25,26,26,27,27,28,28,29,29,30,30,31,31,32,32,33,33,34,34,35,35,36,36,37,37,38,38,39,39,40,40,41,41,42,42,43,43,44,44,45,45,46,46,47,47,48,48,49,49,50,50,51,51,52,52,53,53,54,54,55,55,56,56,57,57,58,58,59,59,60,60,61,61,62,62],"right_children":[2,4,6,8,10,12,14,16,18,20,22,24,26,28,30,32,34,36,38,40,42,44,46,48,50,52,54,56,58,60,62,64,66,68,70,72,74,76,78,80,82,84,86,88,90,92,94,96,98,100,102,104,106,108,110,112,114,116,118,120,122,124,126,-1,-1,-1,-1,-1,-1,-1,-1,-1,-1,-1,-1,-1,-1,-1,-1,-1,-1,-1,-1,-1,-1,-1,-1,-1,-1,-1,-1,-1,-1,-1,-1,-1,-1,-1,-1,-1,-1,-1,-1,-1,-1,-1,-1,-1,-1,-1,-1,-1,-1,-1,-1,-1,-1,-1,-1,-1,-1,-1,-1,-1,-1,-1,-1],"split_conditions":[-1.1358997E-2,-8.79781E-1,8.522901E-1,-1.3125702E0,-4.45448E-1,4.1962767E-1,1.2847437E0,-1.5299867E0,-1.093821E0,-6.626E-1,-2.3028094E-1,2.0387603E-1,6.340877E-1,1.0676632E0,1.5017649E0,-1.6383439E0,-1.4209415E0,-1.2163726E0,-9.866121E-1,-7.707569E-1,-5.5431587E-1,-3.3714452E-1,-1.20584175E-1,9.643993E-2,3.1220114E-1,5.2752477E-1,7.435449E-1,9.596628E-1,1.176181E0,1.3940254E0,1.6092978E0,-2.57677E-2,-1.5835886E0,-1.4745302E0,-1.3664238E0,-3.9278533E-2,-1.1613855E0,-1.0403491E0,-9.328864E-1,-8.251139E-1,-7.1649045E-1,-6.086234E-1,-5.0018704E-1,-3.920965E-1,-2.8289986E-1,-1.7720746E-1,-6.797753E-2,4.016562E-2,1.519256E-1,2.571828E-1,3.666963E-1,4.736063E-1,5.805722E-1,6.887584E-1,7.96696E-1,9.05979E-1,1.0136265E0,1.1210831E0,1.2302256E0,1.3390787E0,1.4474691E0,1.5555311E0,1.6638634E0,-4.58345E0,-4.723689E0,-4.4450555E0,-4.2933483E0,-4.1440363E0,-3.994611E0,-3.845195E0,-3.6973214E0,-3.4210818E0,-3.5555716E0,-3.2777617E0,-3.1113505E0,-2.9413161E0,-2.7956975E0,-2.6470613E0,-2.5033674E0,-2.35337E0,-2.2030394E0,-2.0507739E0,-1.9014492E0,-1.755785E0,-1.6043017E0,-1.4530429E0,-1.306096E0,-1.157665E0,-1.0052581E0,-8.5755527E-1,-7.0664424E-1,-5.623996E-1,-4.091498E-1,-2.6047844E-1,-1.0950798E-1,4.0745698E-2,1.8966725E-1,3.4344274E-1,4.8991355E-1,6.3666314E-1,7.848327E-1,9.34877E-1,1.085489E0,1.2316945E0,1.3795977E0,1.5289812E0,1.6750615E0,1.8249264E0,1.9791607E0,2.1236033E0,2.2746122E0,2.4251878E0,2.5734835E0,2.7237844E0,2.8713682E0,3.0177183E0,3.1681E0,3.3183508E0,3.4677122E0,3.6193383E0,3.7710736E0,3.919637E0,4.068482E0,4.2176785E0,4.365596E0,4.514955E0,4.684762E0],"split_indices":[1,1,1,1,1,1,1,1,1,1,1,1,1,1,1,1,1,1,1,1,1,1,1,1,1,1,1,1,1,1,1,3,1,1,1,3,1,1,1,1,1,1,1,1,1,1,1,1,1,1,1,1,1,1,1,1,1,1,1,1,1,1,1,0,0,0,0,0,0,0,0,0,0,0,0,0,0,0,0,0,0,0,0,0,0,0,0,0,0,0,0,0,0,0,0,0,0,0,0,0,0,0,0,0,0,0,0,0,0,0,0,0,0,0,0,0,0,0,0,0,0,0,0,0,0,0,0],"split_type":[0,0,0,0,0,0,0,0,0,0,0,0,0,0,0,0,0,0,0,0,0,0,0,0,0,0,0,0,0,0,0,0,0,0,0,0,0,0,0,0,0,0,0,0,0,0,0,0,0,0,0,0,0,0,0,0,0,0,0,0,0,0,0,0,0,0,0,0,0,0,0,0,0,0,0,0,0,0,0,0,0,0,0,0,0,0,0,0,0,0,0,0,0,0,0,0,0,0,0,0,0,0,0,0,0,0,0,0,0,0,0,0,0,0,0,0,0,0,0,0,0,0,0,0,0,0,0],"sum_hessian":[3.73592E5,1.85428E5,1.88164E5,9.1979E4,9.3449E4,9.3276E4,9.4888E4,4.527E4,4.6709E4,4.6728E4,4.6721E4,4.655E4,4.6726E4,4.6685E4,4.8203E4,2.1897E4,2.3373E4,2.3347E4,2.3362E4,2.3358E4,2.337E4,2.3351E4,2.337E4,2.3169E4,2.3381E4,2.3336E4,2.339E4,2.3338E4,2.3347E4,2.3372E4,2.4831E4,1.0202E4,1.1695E4,1.1673E4,1.17E4,1.0228E4,1.3119E4,1.167E4,1.1692E4,1.1689E4,1.1669E4,1.1692E4,1.1678E4,1.1692E4,1.1659E4,1.1695E4,1.1675E4,1.1663E4,1.1506E4,1.168E4,1.1701E4,1.1675E4,1.1661E4,1.1689E4,1.1701E4,1.1632E4,1.1706E4,1.1689E4,1.1658E4,1.169E4,1.1682E4,1.1692E4,1.3139E4,5.048E3,5.154E3,5.857E3,5.838E3,5.863E3,5.81E3,5.867E3,5.833E3,5.007E3,5.221E3,5.822E3,7.297E3,5.845E3,5.825E3,5.843E3,5.849E3,5.862E3,5.827E3,5.846E3,5.823E3,5.843E3,5.849E3,5.838E3,5.84E3,5.837E3,5.855E3,5.832E3,5.827E3,5.678E3,6.017E3,5.651E3,6.024E3,5.664E3,5.999E3,5.837E3,5.669E3,5.838E3,5.842E3,5.856E3,5.845E3,5.835E3,5.84E3,5.846E3,5.815E3,5.839E3,5.85E3,5.859E3,5.842E3,5.809E3,5.823E3,5.869E3,5.837E3,5.859E3,5.83E3,5.821E3,5.837E3,5.85E3,5.84E3,5.848E3,5.834E3,5.85E3,5.842E3,5.848E3,7.291E3],"tree_param":{"num_deleted":"0","num_feature":"9","num_nodes":"127","size_leaf_vector":"1"}},{"base_weights":[-5.6455933E-6,-7.783108E1,7.669937E1,-1.1647423E2,-3.9794968E1,3.749853E1,1.15233444E2,-1.3587885E2,-9.766492E1,-5.9133755E1,-2.0452435E1,1.8251024E1,5.667274E1,9.526418E1,1.3457146E2,-1.4558861E2,-1.26776405E2,-1.073163E2,-8.801555E1,-6.879751E1,-4.9472427E1,-3.0137066E1,-1.0774801E1,8.584576E0,2.7829046E1,4.7008083E1,6.631266E1,8.5658325E1,1.0486227E2,1.24322266E2,1.4421306E2,-1.5050462E2,-1.4128767E2,-1.3159775E2,-1.2195536E2,-1.1219876E2,-1.0241416E2,-9.2760864E1,-8.327164E1,-7.367592E1,-6.390485E1,-5.4325077E1,-4.4609726E1,-3.4966637E1,-2.5291243E1,-1.56363325E1,-5.9040213E0,3.7944958E0,1.3439265E1,2.2983759E1,3.266326E1,4.2220757E1,5.1797127E1,6.1507343E1,7.110739E1,8.082211E1,9.045665E1,9.934912E1,1.09146614E2,1.1948708E2,1.2915012E2,1.3877391E2,1.4904225E2,-4.4459734E0,-4.582006E0,-4.3117266E0,-4.16457E0,-4.0197372E0,-3.874793E0,-3.7298589E0,-3.5864208E0,-3.4420202E0,-3.2896943E0,-3.1444428E0,-3.0002878E0,-2.853092E0,-2.7118409E0,-2.4256842E0,-2.5670912E0,-2.282781E0,-2.1369596E0,-1.9892612E0,-1.8444157E0,-1.7031205E0,-1.5561808E0,-1.4094591E0,-1.2669197E0,-1.1229409E0,-9.751054E-1,-8.31833E-1,-6.854485E-1,-5.455306E-1,-3.9687732E-1,-2.5266546E-1,-1.0622328E-1,3.9523542E-2,1.8397817E-1,4.7540665E-1,3.313798E-1,6.1756647E-1,7.6129174E-1,9.068355E-1,1.0529299E0,1.19475E0,1.3382168E0,1.4831196E0,1.6248183E0,1.7701879E0,1.9197961E0,2.059906E0,2.2063854E0,2.3524446E0,2.496292E0,2.6420848E0,2.7852418E0,3.0550954E0,2.9161682E0,3.1843314E0,3.3463113E0,3.5107768E0,3.657961E0,3.802068E0,3.9464483E0,4.09117E0,4.23465E0,4.37953E0,4.544238E0],"categories":[],"categories_nodes":[],"categories_segments":[],"categories_sizes":[],"default_left":[0,0,0,0,0,0,0,0,0,0,0,0,0,0,0,0,0,0,0,0,0,0,0,0,0,0,0,0,0,0,0,0,0,0,0,0,0,0,0,0,0,0,0,0,0,0,0,0,0,0,0,0,0,0,0,0,0,0,0,0,0,0,0,0,0,0,0,0,0,0,0,0,0,0,0,0,0,0,0,0,0,0,0,0,0,0,0,0,0,0,0,0,0,0,0,0,0,0,0,0,0,0,0,0,0,0,0,0,0,0,0,0,0,0,0,0,0,0,0,0,0,0,0,0,0,0,0],"id":5,"left_children":[1,3,5,7,9,11,13,15,17,19,21,23,25,27,29,31,33,35,37,39,41,43,45,47,49,51,53,55,57,59,61,63,65,67,69,71,73,75,77,79,81,83,85,87,89,91,93,95,97,99,101,103,105,107,109,111,113,115,117,119,121,123,125,-1,-1,-1,-1,-1,-1,-1,-1,-1,-1,-1,-1,-1,-1,-1,-1,-1,-1,-1,-1,-1,-1,-1,-1,-1,-1,-1,-1,-1,-1,-1,-1,-1,-1,-1,-1,-1,-1,-1,-1,-1,-1,-1,-1,-1,-1,-1,-1,-1,-1,-1,-1,-1,-1,-1,-1,-1,-1,-1,-1,-1,-1,-1,-1],"loss_changes":[2.230205E9,2.725454E8,2.8423168E8,3.355827E7,3.49548E7,3.4423384E7,3.6630144E7,3.982656E6,4.34064E6,4.35944E6,4.378662E6,4.309707E6,4.350272E6,4.295392E6,4.745472E6,4.4176E5,5.27264E5,5.47328E5,5.18224E5,5.52832E5,5.49064E5,5.45628E5,5.5332E5,5.387524E5,5.4693E5,5.32856E5,5.34552E5,5.34288E5,5.40624E5,5.30176E5,6.31584E5,2.9808E4,5.04E4,5.0816E4,5.2E4,6.2736E4,5.6832E4,5.608E4,5.7984E4,6.3632E4,6.3932E4,6.7184E4,6.3928E4,6.9771E4,6.87715E4,7.149475E4,6.945447E4,6.754519E4,6.6129375E4,6.65035E4,6.8318E4,6.498E4,6.2366E4,6.8908E4,6.4696E4,6.0336E4,5.8472E4,4.46E4,8.264E4,5.6096E4,5.0976E4,4.7632E4,7.5616E4,0E0,0E0,0E0,0E0,0E0,0E0,0E0,0E0,0E0,0E0,0E0,0E0,0E0,0E0,0E0,0E0,0E0,0E0,0E0,0E0,0E0,0E0,0E0,0E0,0E0,0E0,0E0,0E0,0E0,0E0,0E0,0E0,0E0,0E0,0E0,0E0,0E0,0E0,0E0,0E0,0E0,0E0,0E0,0E0,0E0,0E0,0E0,0E0,0E0,0E0,0E0,0E0,0E0,0E0,0E0,0E0,0E0,0E0,0E0,0E0,0E0,0E0,0E0,0E0],"parents":[2147483647,0,0,1,1,2,2,3,3,4,4,5,5,6,6,7,7,8,8,9,9,10,10,11,11,12,12,13,13,14,14,15,15,16,16,17,17,18,18,19,19,20,20,21,21,22,22,23,23,24,24,25,25,26,26,27,27,28,28,29,29,30,30,31,31,32,32,33,33,34,34,35,35,36,36,37,37,38,38,39,39,40,40,41,41,42,42,43,43,44,44,45,45,46,46,47,47,48,48,49,49,50,50,51,51,52,52,53,53,54,54,55,55,56,56,57,57,58,58,59,59,60,60,61,61,62,62],"right_children":[2,4,6,8,10,12,14,16,18,20,22,24,26,28,30,32,34,36,38,40,42,44,46,48,50,52,54,56,58,60,62,64,66,68,70,72,74,76,78,80,82,84,86,88,90,92,94,96,98,100,102,104,106,108,110,112,114,116,118,120,122,124,126,-1,-1,-1,-1,-1,-1,-1,-1,-1,-1,-1,-1,-1,-1,-1,-1,-1,-1,-1,-1,-1,-1,-1,-1,-1,-1,-1,-1,-1,-1,-1,-1,-1,-1,-1,-1,-1,-1,-1,-1,-1,-1,-1,-1,-1,-1,-1,-1,-1,-1,-1,-1,-1,-1,-1,-1,-1,-1,-1,-1,-1,-1,-1,-1],"split_conditions":[-1.1358997E-2,-8.79781E-1,8.522901E-1,-1.3125702E0,-4.45448E-1,4.1962767E-1,1.2847437E0,-1.5299867E0,-1.093821E0,-6.626E-1,-2.3028094E-1,2.0387603E-1,6.340877E-1,1.0676632E0,1.5017649E0,-1.6383439E0,-1.4209415E0,-1.2019044E0,-9.866121E-1,-7.707569E-1,-5.5431587E-1,-3.3714452E-1,-1.20584175E-1,9.643993E-2,3.1220114E-1,5.2752477E-1,7.435449E-1,9.596628E-1,1.1623496E0,1.3940254E0,1.6092978E0,-2.57677E-2,-1.5835886E0,-1.4745302E0,-1.3664238E0,-1.2587007E0,-1.148304E0,-1.0403491E0,-3.9278533E-2,-8.251139E-1,-7.1649045E-1,-6.086234E-1,-5.0018704E-1,-3.920965E-1,-2.8289986E-1,-1.7720746E-1,-6.797753E-2,4.016562E-2,9.7016233E-4,2.571828E-1,3.666963E-1,4.736063E-1,5.805722E-1,6.887584E-1,7.96696E-1,9.05979E-1,1.0136265E0,-9.534024E-2,1.2164847E0,1.3390787E0,1.4474691E0,1.5555311E0,1.6638634E0,-4.4459734E0,-4.582006E0,-4.3117266E0,-4.16457E0,-4.0197372E0,-3.874793E0,-3.7298589E0,-3.5864208E0,-3.4420202E0,-3.2896943E0,-3.1444428E0,-3.0002878E0,-2.853092E0,-2.7118409E0,-2.4256842E0,-2.5670912E0,-2.282781E0,-2.1369596E0,-1.9892612E0,-1.8444157E0,-1.7031205E0,-1.5561808E0,-1.4094591E0,-1.2669197E0,-1.1229409E0,-9.751054E-1,-8.31833E-1,-6.854485E-1,-5.455306E-1,-3.9687732E-1,-2.5266546E-1,-1.0622328E-1,3.9523542E-2,1.8397817E-1,4.7540665E-1,3.313798E-1,6.1756647E-1,7.6129174E-1,9.068355E-1,1.0529299E0,1.19475E0,1.3382168E0,1.4831196E0,1.6248183E0,1.7701879E0,1.9197961E0,2.059906E0,2.2063854E0,2.3524446E0,2.496292E0,2.6420848E0,2.7852418E0,3.0550954E0,2.9161682E0,3.1843314E0,3.3463113E0,3.5107768E0,3.657961E0,3.802068E0,3.9464483E0,4.09117E0,4.23465E0,4.37953E0,4.544238E0],"split_indices":[1,1,1,1,1,1,1,1,1,1,1,1,1,1,1,1,1,1,1,1,1,1,1,1,1,1,1,1,1,1,1,3,1,1,1,1,1,1,3,1,1,1,1,1,1,1,1,1,3,1,1,1,1,1,1,1,1,3,1,1,1,1,1,0,0,0,0,0,0,0,0,0,0,0,0,0,0,0,0,0,0,0,0,0,0,0,0,0,0,0,0,0,0,0,0,0,0,0,0,0,0,0,0,0,0,0,0,0,0,0,0,0,0,0,0,0,0,0,0,0,0,0,0,0,0,0,0],"split_type":[0,0,0,0,0,0,0,0,0,0,0,0,0,0,0,0,0,0,0,0,0,0,0,0,0,0,0,0,0,0,0,0,0,0,0,0,0,0,0,0,0,0,0,0,0,0,0,0,0,0,0,0,0,0,0,0,0,0,0,0,0,0,0,0,0,0,0,0,0,0,0,0,0,0,0,0,0,0,0,0,0,0,0,0,0,0,0,0,0,0,0,0,0,0,0,0,0,0,0,0,0,0,0,0,0,0,0,0,0,0,0,0,0,0,0,0,0,0,0,0,0,0,0,0,0,0,0],"sum_hessian":[3.73592E5,1.85428E5,1.88164E5,9.1979E4,9.3449E4,9.3276E4,9.4888E4,4.527E4,4.6709E4,4.6728E4,4.6721E4,4.655E4,4.6726E4,4.6685E4,4.8203E4,2.1897E4,2.3373E4,2.3347E4,2.3362E4,2.3358E4,2.337E4,2.3351E4,2.337E4,2.3169E4,2.3381E4,2.3336E4,2.339E4,2.3338E4,2.3347E4,2.3372E4,2.4831E4,1.0202E4,1.1695E4,1.1673E4,1.17E4,1.1686E4,1.1661E4,1.167E4,1.1692E4,1.1689E4,1.1669E4,1.1692E4,1.1678E4,1.1692E4,1.1659E4,1.1695E4,1.1675E4,1.1663E4,1.1506E4,1.168E4,1.1701E4,1.1675E4,1.1661E4,1.1689E4,1.1701E4,1.1632E4,1.1706E4,1.022E4,1.3127E4,1.169E4,1.1682E4,1.1692E4,1.3139E4,5.048E3,5.154E3,5.857E3,5.838E3,5.863E3,5.81E3,5.867E3,5.833E3,5.829E3,5.857E3,5.814E3,5.847E3,5.845E3,5.825E3,5.718E3,5.974E3,5.862E3,5.827E3,5.846E3,5.823E3,5.843E3,5.849E3,5.838E3,5.84E3,5.837E3,5.855E3,5.832E3,5.827E3,5.678E3,6.017E3,5.651E3,6.024E3,5.664E3,5.999E3,5.733E3,5.773E3,5.838E3,5.842E3,5.856E3,5.845E3,5.835E3,5.84E3,5.846E3,5.815E3,5.839E3,5.85E3,5.859E3,5.842E3,5.809E3,5.823E3,5.869E3,5.837E3,4.709E3,5.511E3,5.848E3,7.279E3,5.85E3,5.84E3,5.848E3,5.834E3,5.85E3,5.842E3,5.848E3,7.291E3],"tree_param":{"num_deleted":"0","num_feature":"9","num_nodes":"127","size_leaf_vector":"1"}},{"base_weights":[-1.1475842E-5,-7.490813E1,7.498353E1,-1.1180791E2,-3.682966E1,3.754055E1,1.1235838E2,-1.3063016E2,-9.23833E1,-5.5013645E1,-1.8067657E1,1.9441706E1,5.6724674E1,9.415964E1,1.317234E2,-1.4004828E2,-1.20618515E2,-1.0172749E2,-8.305354E1,-6.437962E1,-4.56417E1,-2.6959959E1,-8.729177E0,1.0071045E1,2.9306942E1,4.7927494E1,6.610261E1,8.481906E1,1.0408295E2,1.2295944E2,1.4107214E2,-1.4481462E2,-1.346788E2,-1.2530166E2,-1.15945465E2,-1.0644086E2,-9.7005005E1,-8.7679596E1,-7.8431076E1,-6.9089325E1,-5.967087E1,-5.034045E1,-4.0933002E1,-3.155032E1,-2.2280933E1,-1.2916964E1,-4.010676E0,5.403595E0,1.5411774E1,2.460797E1,3.4017895E1,4.3282646E1,5.257699E1,6.2006863E1,7.076678E1,8.0144066E1,9.007412E1,9.9374565E1,1.0877598E2,1.1826839E2,1.2763436E2,1.3694948E2,1.4577698E2,-4.418092E0,-4.251802E0,-3.9675763E0,-4.1122627E0,-3.8282614E0,-3.6887145E0,-3.5484087E0,-3.4074726E0,-3.2664752E0,-3.1198184E0,-2.8366725E0,-2.9794338E0,-2.5589778E0,-2.6978974E0,-2.4221873E0,-2.28293E0,-1.995067E0,-2.1408336E0,-1.7189366E0,-1.8603439E0,-1.5801501E0,-1.4404248E0,-1.2972862E0,-1.1584476E0,-8.7227154E-1,-1.013929E0,-5.9873337E-1,-7.392539E-1,-4.5695046E-1,-3.1356472E-1,-5.0608464E-2,-1.8950072E-1,9.082841E-2,2.506351E-1,5.366711E-1,3.9624798E-1,8.1144404E-1,6.7029643E-1,9.502084E-1,1.0904862E0,1.2281566E0,1.3684003E0,1.5073819E0,1.647003E0,1.9352567E0,1.7919782E0,2.1946285E0,2.0541599E0,2.3333688E0,2.4916596E0,2.770987E0,2.6329734E0,2.9082518E0,3.0537608E0,3.1919127E0,3.3338206E0,3.4785748E0,3.6166842E0,3.8998892E0,3.760123E0,4.1794457E0,4.0361705E0,4.443319E0,4.2997003E0],"categories":[],"categories_nodes":[],"categories_segments":[],"categories_sizes":[],"default_left":[0,0,0,0,0,0,0,0,0,0,0,0,0,0,0,0,0,0,0,0,0,0,0,0,0,0,0,0,0,0,0,0,0,0,0,0,0,0,0,0,0,0,0,0,0,0,0,0,0,0,0,0,0,0,0,0,0,0,0,0,0,0,0,0,0,0,0,0,0,0,0,0,0,0,0,0,0,0,0,0,0,0,0,0,0,0,0,0,0,0,0,0,0,0,0,0,0,0,0,0,0,0,0,0,0,0,0,0,0,0,0,0,0,0,0,0,0,0,0,0,0,0,0,0,0,0,0],"id":6,"left_children":[1,3,5,7,9,11,13,15,17,19,21,23,25,27,29,31,33,35,37,39,41,43,45,47,49,51,53,55,57,59,61,63,65,67,69,71,73,75,77,79,81,83,85,87,89,91,93,95,97,99,101,103,105,107,109,111,113,115,117,119,121,123,125,-1,-1,-1,-1,-1,-1,-1,-1,-1,-1,-1,-1,-1,-1,-1,-1,-1,-1,-1,-1,-1,-1,-1,-1,-1,-1,-1,-1,-1,-1,-1,-1,-1,-1,-1,-1,-1,-1,-1,-1,-1,-1,-1,-1,-1,-1,-1,-1,-1,-1,-1,-1,-1,-1,-1,-1,-1,-1,-1,-1,-1,-1,-1,-1],"loss_changes":[2.098431E9,2.6259398E8,2.6127277E8,3.468992E7,3.1378952E7,3.2382512E7,3.2916224E7,4.528064E6,4.063936E6,4.096976E6,3.759094E6,4.436358E6,3.732064E6,4.456224E6,3.691328E6,6.15968E5,4.9696E5,5.09056E5,4.93088E5,5.13904E5,5.14552E5,4.97358E5,4.3631012E5,6.13509E5,5.16696E5,5.0232E5,4.142E5,6.0256E5,5.052E5,4.9744E5,4.04704E5,7.8752E4,4.9872E4,4.7376E4,5.1184E4,5.8392E4,5.6608E4,5.4872E4,5.6896E4,6.3856E4,6.1364E4,6.0828E4,6.0806E4,6.4101E4,6.2511E4,6.65875E4,5.563789E4,9.208219E4,6.2424E4,6.40985E4,6.2648E4,6.2022E4,6.0446E4,6.2572E4,5.108E4,8.404E4,5.3672E4,5.876E4,5.3536E4,4.7904E4,4.7136E4,4.7888E4,3.7216E4,0E0,0E0,0E0,0E0,0E0,0E0,0E0,0E0,0E0,0E0,0E0,0E0,0E0,0E0,0E0,0E0,0E0,0E0,0E0,0E0,0E0,0E0,0E0,0E0,0E0,0E0,0E0,0E0,0E0,0E0,0E0,0E0,0E0,0E0,0E0,0E0,0E0,0E0,0E0,0E0,0E0,0E0,0E0,0E0,0E0,0E0,0E0,0E0,0E0,0E0,0E0,0E0,0E0,0E0,0E0,0E0,0E0,0E0,0E0,0E0,0E0,0E0,0E0,0E0],"parents":[2147483647,0,0,1,1,2,2,3,3,4,4,5,5,6,6,7,7,8,8,9,9,10,10,11,11,12,12,13,13,14,14,15,15,16,16,17,17,18,18,19,19,20,20,21,21,22,22,23,23,24,24,25,25,26,26,27,27,28,28,29,29,30,30,31,31,32,32,33,33,34,34,35,35,36,36,37,37,38,38,39,39,40,40,41,41,42,42,43,43,44,44,45,45,46,46,47,47,48,48,49,49,50,50,51,51,52,52,53,53,54,54,55,55,56,56,57,57,58,58,59,59,60,60,61,61,62,62],"right_children":[2,4,6,8,10,12,14,16,18,20,22,24,26,28,30,32,34,36,38,40,42,44,46,48,50,52,54,56,58,60,62,64,66,68,70,72,74,76,78,80,82,84,86,88,90,92,94,96,98,100,102,104,106,108,110,112,114,116,118,120,122,124,126,-1,-1,-1,-1,-1,-1,-1,-1,-1,-1,-1,-1,-1,-1,-1,-1,-1,-1,-1,-1,-1,-1,-1,-1,-1,-1,-1,-1,-1,-1,-1,-1,-1,-1,-1,-1,-1,-1,-1,-1,-1,-1,-1,-1,-1,-1,-1,-1,-1,-1,-1,-1,-1,-1,-1,-1,-1,-1,-1,-1,-1,-1,-1,-1],"split_conditions":[2.2331793E-3,-8.5223836E-1,8.65447E-1,-1.2851559E0,-4.193362E-1,4.4612363E-1,1.3123012E0,-1.5021566E0,-1.0674605E0,-6.3579845E-1,-2.0445769E-1,2.3071998E-1,6.6172874E-1,1.0944327E0,1.52891E0,-1.6104435E0,-1.3943336E0,-1.174539E0,-9.599141E-1,-7.4374264E-1,-5.268786E-1,-3.1081134E-1,-9.512266E-2,1.2446698E-1,3.3968058E-1,5.54341E-1,7.697578E-1,9.8697007E-1,1.2030828E0,1.4211684E0,1.6364745E0,-1.6662884E0,9.7016233E-4,-1.4473593E0,-1.3392814E0,-1.2307297E0,-3.9278533E-2,-6.677389E-2,-9.062629E-1,-9.534024E-2,-1.2427217E-2,-5.8149004E-1,-4.7301582E-1,-8.029282E-2,2.6487093E-2,-1.4806914E-1,9.7016233E-4,6.9470584E-2,-9.534024E-2,-3.9278533E-2,3.93161E-1,5.008821E-1,6.074125E-1,-8.029282E-2,-3.9278533E-2,9.3295616E-1,-2.57677E-2,1.1484824E0,1.2572491E0,1.3665186E0,-3.9278533E-2,-1.2427217E-2,9.7016233E-4,-4.418092E0,-4.251802E0,-3.9675763E0,-4.1122627E0,-3.8282614E0,-3.6887145E0,-3.5484087E0,-3.4074726E0,-3.2664752E0,-3.1198184E0,-2.8366725E0,-2.9794338E0,-2.5589778E0,-2.6978974E0,-2.4221873E0,-2.28293E0,-1.995067E0,-2.1408336E0,-1.7189366E0,-1.8603439E0,-1.5801501E0,-1.4404248E0,-1.2972862E0,-1.1584476E0,-8.7227154E-1,-1.013929E0,-5.9873337E-1,-7.392539E-1,-4.5695046E-1,-3.1356472E-1,-5.0608464E-2,-1.8950072E-1,9.082841E-2,2.506351E-1,5.366711E-1,3.9624798E-1,8.1144404E-1,6.7029643E-1,9.502084E-1,1.0904862E0,1.2281566E0,1.3684003E0,1.5073819E0,1.647003E0,1.9352567E0,1.7919782E0,2.1946285E0,2.0541599E0,2.3333688E0,2.4916596E0,2.770987E0,2.6329734E0,2.9082518E0,3.0537608E0,3.1919127E0,3.3338206E0,3.4785748E0,3.6166842E0,3.8998892E0,3.760123E0,4.1794457E0,4.0361705E0,4.443319E0,4.2997003E0],"split_indices":[1,1,1,1,1,1,1,1,1,1,1,1,1,1,1,1,1,1,1,1,1,1,1,1,1,1,1,1,1,1,1,1,3,1,1,1,3,3,1,3,3,1,1,3,3,1,3,1,3,3,1,1,1,3,3,1,3,1,1,1,3,3,3,0,0,0,0,0,0,0,0,0,0,0,0,0,0,0,0,0,0,0,0,0,0,0,0,0,0,0,0,0,0,0,0,0,0,0,0,0,0,0,0,0,0,0,0,0,0,0,0,0,0,0,0,0,0,0,0,0,0,0,0,0,0,0,0],"split_type":[0,0,0,0,0,0,0,0,0,0,0,0,0,0,0,0,0,0,0,0,0,0,0,0,0,0,0,0,0,0,0,0,0,0,0,0,0,0,0,0,0,0,0,0,0,0,0,0,0,0,0,0,0,0,0,0,0,0,0,0,0,0,0,0,0,0,0,0,0,0,0,0,0,0,0,0,0,0,0,0,0,0,0,0,0,0,0,0,0,0,0,0,0,0,0,0,0,0,0,0,0,0,0,0,0,0,0,0,0,0,0,0,0,0,0,0,0,0,0,0,0,0,0,0,0,0,0],"sum_hessian":[3.73592E5,1.8689E5,1.86702E5,9.4913E4,9.1977E4,9.3267E4,9.3435E4,4.8201E4,4.6712E4,4.6707E4,4.527E4,4.7992E4,4.5275E4,4.8171E4,4.5264E4,2.483E4,2.3371E4,2.3333E4,2.3379E4,2.3358E4,2.3349E4,2.3188E4,2.2082E4,2.4614E4,2.3378E4,2.3364E4,2.1911E4,2.4819E4,2.3352E4,2.337E4,2.1894E4,1.314E4,1.169E4,1.166E4,1.1711E4,1.1667E4,1.1666E4,1.1676E4,1.1703E4,1.1671E4,1.1687E4,1.1682E4,1.1667E4,1.1702E4,1.1486E4,1.1698E4,1.0384E4,1.3136E4,1.1478E4,1.1707E4,1.1671E4,1.1693E4,1.1671E4,1.1674E4,1.0237E4,1.3143E4,1.1676E4,1.1668E4,1.1684E4,1.1678E4,1.1692E4,1.1685E4,1.0209E4,7.294E3,5.846E3,5.837E3,5.853E3,5.85E3,5.81E3,5.866E3,5.845E3,5.818E3,5.849E3,5.682E3,5.984E3,5.693E3,5.983E3,5.866E3,5.837E3,5.471E3,6.2E3,5.816E3,5.871E3,5.824E3,5.858E3,5.835E3,5.832E3,5.576E3,6.126E3,5.794E3,5.692E3,6.03E3,5.668E3,5.173E3,5.211E3,7.278E3,5.858E3,5.4E3,6.078E3,5.63E3,6.077E3,5.827E3,5.844E3,5.839E3,5.854E3,5.837E3,5.834E3,5.546E3,6.128E3,5.002E3,5.235E3,7.267E3,5.876E3,5.839E3,5.837E3,5.836E3,5.832E3,5.831E3,5.853E3,5.829E3,5.849E3,5.737E3,5.955E3,5.869E3,5.816E3,5.202E3,5.007E3],"tree_param":{"num_deleted":"0","num_feature":"9","num_nodes":"127","size_leaf_vector":"1"}},{"base_weights":[-5.192465E-6,-7.3232925E1,7.2168076E1,-1.0959278E2,-3.7444244E1,3.52828E1,1.0842598E2,-1.2785187E2,-9.189385E1,-5.5639538E1,-1.9245424E1,1.7174202E1,5.3322433E1,8.963639E1,1.2662161E2,-1.3699937E2,-1.19276535E2,-1.0156696E2,-8.334754E1,-6.532241E1,-4.7084534E1,-2.836435E1,-1.0133088E1,8.071933E0,2.6193209E1,4.4230007E1,6.2391586E1,8.059086E1,9.867459E1,1.1696721E2,1.3570367E2,-1.416201E2,-1.3295676E2,-1.23804016E2,-1.14749306E2,-1.061849E2,-9.751331E1,-8.84019E1,-7.886398E1,-6.995176E1,-6.1242607E1,-5.2200466E1,-4.2545345E1,-3.2918865E1,-2.3794512E1,-1.4696327E1,-5.5611653E0,3.5763757E0,1.2628125E1,2.1624454E1,3.0751526E1,3.9725323E1,4.8736305E1,5.724346E1,6.638747E1,7.605158E1,8.509456E1,9.4109314E1,1.03243546E2,1.1242668E2,1.2150084E2,1.3057404E2,1.4025812E2,-4.3244343E0,-4.1907754E0,-3.9127884E0,-4.0534825E0,-3.642863E0,-3.7815926E0,-3.3723404E0,-3.5123882E0,-3.1185954E0,-3.2491448E0,-2.8533015E0,-2.99095E0,-2.5841353E0,-2.7198613E0,-2.4502733E0,-2.2978137E0,-2.026149E0,-2.1649604E0,-1.7665386E0,-1.9033264E0,-1.4954E0,-1.6369176E0,-1.3620843E0,-1.2075053E0,-9.173883E-1,-1.0576707E0,-6.438927E-1,-7.818922E-1,-3.6918753E-1,-5.095291E-1,-2.3865227E-1,-9.943607E-2,1.7769356E-1,3.953543E-2,3.1042337E-1,4.4922456E-1,7.1640664E-1,5.797328E-1,9.9606514E-1,8.560814E-1,1.2636791E0,1.125312E0,1.5367286E0,1.395265E0,1.7905167E0,1.6487978E0,1.9062648E0,2.0593739E0,2.3546326E0,2.214984E0,2.6230152E0,2.48398E0,2.7536793E0,2.8927414E0,3.1674979E0,3.0256348E0,3.4449549E0,3.3050466E0,3.7157917E0,3.5784082E0,3.9862E0,3.8477376E0,4.121014E0,4.2767324E0],"categories":[],"categories_nodes":[],"categories_segments":[],"categories_sizes":[],"default_left":[0,0,0,0,0,0,0,0,0,0,0,0,0,0,0,0,0,0,0,0,0,0,0,0,0,0,0,0,0,0,0,0,0,0,0,0,0,0,0,0,0,0,0,0,0,0,0,0,0,0,0,0,0,0,0,0,0,0,0,0,0,0,0,0,0,0,0,0,0,0,0,0,0,0,0,0,0,0,0,0,0,0,0,0,0,0,0,0,0,0,0,0,0,0,0,0,0,0,0,0,0,0,0,0,0,0,0,0,0,0,0,0,0,0,0,0,0,0,0,0,0,0,0,0,0,0,0],"id":7,"left_children":[1,3,5,7,9,11,13,15,17,19,21,23,25,27,29,31,33,35,37,39,41,43,45,47,49,51,53,55,57,59,61,63,65,67,69,71,73,75,77,79,81,83,85,87,89,91,93,95,97,99,101,103,105,107,109,111,113,115,117,119,121,123,125,-1,-1,-1,-1,-1,-1,-1,-1,-1,-1,-1,-1,-1,-1,-1,-1,-1,-1,-1,-1,-1,-1,-1,-1,-1,-1,-1,-1,-1,-1,-1,-1,-1,-1,-1,-1,-1,-1,-1,-1,-1,-1,-1,-1,-1,-1,-1,-1,-1,-1,-1,-1,-1,-1,-1,-1,-1,-1,-1,-1,-1,-1,-1,-1],"loss_changes":[1.974474E9,2.412894E8,2.516448E8,2.9713152E7,3.094328E7,3.0470104E7,3.2430208E7,3.534848E6,3.852992E6,3.867824E6,3.882062E6,3.821321E6,3.850392E6,3.808832E6,4.210688E6,3.90208E5,4.64896E5,3.99712E5,5.55152E5,4.09664E5,5.73992E5,4.85252E5,4.8750225E5,4.7453725E5,4.86285E5,4.71792E5,4.77384E5,4.70656E5,4.77296E5,4.67488E5,5.61824E5,2.9568E4,4.6304E4,4.7072E4,5.0592E4,3.7128E4,5.1848E4,5.1808E4,7.7704E4,4.9944E4,5.6788E4,6.2152E4,8.4434E4,6.2841E4,6.11105E4,6.374975E4,6.2769844E4,6.1813547E4,6.14135E4,6.01435E4,6.2587E4,6.0418E4,6.2248E4,5.3724E4,8.0216E4,5.7088E4,5.5616E4,5.3944E4,5.4536E4,5.0864E4,4.6416E4,4.5216E4,6.7776E4,0E0,0E0,0E0,0E0,0E0,0E0,0E0,0E0,0E0,0E0,0E0,0E0,0E0,0E0,0E0,0E0,0E0,0E0,0E0,0E0,0E0,0E0,0E0,0E0,0E0,0E0,0E0,0E0,0E0,0E0,0E0,0E0,0E0,0E0,0E0,0E0,0E0,0E0,0E0,0E0,0E0,0E0,0E0,0E0,0E0,0E0,0E0,0E0,0E0,0E0,0E0,0E0,0E0,0E0,0E0,0E0,0E0,0E0,0E0,0E0,0E0,0E0,0E0,0E0],"parents":[2147483647,0,0,1,1,2,2,3,3,4,4,5,5,6,6,7,7,8,8,9,9,10,10,11,11,12,12,13,13,14,14,15,15,16,16,17,17,18,18,19,19,20,20,21,21,22,22,23,23,24,24,25,25,26,26,27,27,28,28,29,29,30,30,31,31,32,32,33,33,34,34,35,35,36,36,37,37,38,38,39,39,40,40,41,41,42,42,43,43,44,44,45,45,46,46,47,47,48,48,49,49,50,50,51,51,52,52,53,53,54,54,55,55,56,56,57,57,58,58,59,59,60,60,61,61,62,62],"right_children":[2,4,6,8,10,12,14,16,18,20,22,24,26,28,30,32,34,36,38,40,42,44,46,48,50,52,54,56,58,60,62,64,66,68,70,72,74,76,78,80,82,84,86,88,90,92,94,96,98,100,102,104,106,108,110,112,114,116,118,120,122,124,126,-1,-1,-1,-1,-1,-1,-1,-1,-1,-1,-1,-1,-1,-1,-1,-1,-1,-1,-1,-1,-1,-1,-1,-1,-1,-1,-1,-1,-1,-1,-1,-1,-1,-1,-1,-1,-1,-1,-1,-1,-1,-1,-1,-1,-1,-1,-1,-1,-1,-1,-1,-1,-1,-1,-1,-1,-1,-1,-1,-1,-1,-1,-1,-1],"split_conditions":[-1.1358997E-2,-8.79781E-1,8.522901E-1,-1.3125702E0,-4.45448E-1,4.1962767E-1,1.2847437E0,-1.5299867E0,-1.107131E0,-6.759069E-1,-2.3028094E-1,2.0387603E-1,6.340877E-1,1.0676632E0,1.5017649E0,-1.6383439E0,-1.4209415E0,-1.2163726E0,-1.0001235E0,-7.841696E-1,-5.677897E-1,-3.3714452E-1,-1.20584175E-1,9.643993E-2,3.1220114E-1,5.2752477E-1,7.301069E-1,9.596628E-1,1.176181E0,1.3940254E0,1.6092978E0,-1.693831E0,-1.22890756E-1,-3.9278533E-2,2.6487093E-2,-3.9278533E-2,-8.029282E-2,-1.2427217E-2,-9.461918E-1,-3.9278533E-2,-8.029282E-2,-1.2427217E-2,-5.1379526E-1,9.7016233E-4,-1.2427217E-2,-3.9278533E-2,-6.797753E-2,-5.3046532E-2,1.519256E-1,2.6487093E-2,-9.534024E-2,-5.3046532E-2,-8.029282E-2,-6.677389E-2,7.828295E-1,-5.3046532E-2,-5.3046532E-2,1.1210831E0,2.6487093E-2,-6.677389E-2,-6.677389E-2,-1.2427217E-2,1.6638634E0,-4.3244343E0,-4.1907754E0,-3.9127884E0,-4.0534825E0,-3.642863E0,-3.7815926E0,-3.3723404E0,-3.5123882E0,-3.1185954E0,-3.2491448E0,-2.8533015E0,-2.99095E0,-2.5841353E0,-2.7198613E0,-2.4502733E0,-2.2978137E0,-2.026149E0,-2.1649604E0,-1.7665386E0,-1.9033264E0,-1.4954E0,-1.6369176E0,-1.3620843E0,-1.2075053E0,-9.173883E-1,-1.0576707E0,-6.438927E-1,-7.818922E-1,-3.6918753E-1,-5.095291E-1,-2.3865227E-1,-9.943607E-2,1.7769356E-1,3.953543E-2,3.1042337E-1,4.4922456E-1,7.1640664E-1,5.797328E-1,9.9606514E-1,8.560814E-1,1.2636791E0,1.125312E0,1.5367286E0,1.395265E0,1.7905167E0,1.6487978E0,1.9062648E0,2.0593739E0,2.3546326E0,2.214984E0,2.6230152E0,2.48398E0,2.7536793E0,2.8927414E0,3.1674979E0,3.0256348E0,3.4449549E0,3.3050466E0,3.7157917E0,3.5784082E0,3.9862E0,3.8477376E0,4.121014E0,4.2767324E0],"split_indices":[1,1,1,1,1,1,1,1,1,1,1,1,1,1,1,1,1,1,1,1,1,1,1,1,1,1,1,1,1,1,1,1,3,3,3,3,3,3,1,3,3,3,1,3,3,3,1,3,1,3,3,3,3,3,1,3,3,1,3,3,3,3,1,0,0,0,0,0,0,0,0,0,0,0,0,0,0,0,0,0,0,0,0,0,0,0,0,0,0,0,0,0,0,0,0,0,0,0,0,0,0,0,0,0,0,0,0,0,0,0,0,0,0,0,0,0,0,0,0,0,0,0,0,0,0,0,0],"split_type":[0,0,0,0,0,0,0,0,0,0,0,0,0,0,0,0,0,0,0,0,0,0,0,0,0,0,0,0,0,0,0,0,0,0,0,0,0,0,0,0,0,0,0,0,0,0,0,0,0,0,0,0,0,0,0,0,0,0,0,0,0,0,0,0,0,0,0,0,0,0,0,0,0,0,0,0,0,0,0,0,0,0,0,0,0,0,0,0,0,0,0,0,0,0,0,0,0,0,0,0,0,0,0,0,0,0,0,0,0,0,0,0,0,0,0,0,0,0,0,0,0,0,0,0,0,0,0],"sum_hessian":[3.73592E5,1.85428E5,1.88164E5,9.1979E4,9.3449E4,9.3276E4,9.4888E4,4.527E4,4.6709E4,4.6728E4,4.6721E4,4.655E4,4.6726E4,4.6685E4,4.8203E4,2.1897E4,2.3373E4,2.1905E4,2.4804E4,2.1916E4,2.4812E4,2.3351E4,2.337E4,2.3169E4,2.3381E4,2.3336E4,2.339E4,2.3338E4,2.3347E4,2.3372E4,2.4831E4,1.0202E4,1.1695E4,1.1673E4,1.17E4,1.0228E4,1.1677E4,1.1651E4,1.3153E4,1.0259E4,1.1657E4,1.166E4,1.3152E4,1.1692E4,1.1659E4,1.1695E4,1.1675E4,1.1663E4,1.1506E4,1.168E4,1.1701E4,1.1675E4,1.1661E4,1.0228E4,1.3162E4,1.1632E4,1.1706E4,1.1689E4,1.1658E4,1.169E4,1.1682E4,1.1692E4,1.3139E4,4.382E3,5.82E3,5.413E3,6.282E3,5.704E3,5.969E3,5.865E3,5.835E3,5.007E3,5.221E3,5.582E3,6.095E3,5.84E3,5.811E3,5.86E3,7.293E3,4.923E3,5.336E3,5.642E3,6.015E3,5.853E3,5.807E3,5.85E3,7.302E3,5.85E3,5.842E3,5.755E3,5.904E3,5.723E3,5.972E3,5.651E3,6.024E3,5.719E3,5.944E3,5.837E3,5.669E3,5.892E3,5.788E3,5.549E3,6.152E3,5.598E3,6.077E3,5.498E3,6.163E3,4.932E3,5.296E3,5.837E3,7.325E3,5.528E3,6.104E3,5.779E3,5.927E3,5.859E3,5.83E3,5.868E3,5.79E3,5.637E3,6.053E3,5.638E3,6.044E3,5.839E3,5.853E3,5.848E3,7.291E3],"tree_param":{"num_deleted":"0","num_feature":"9","num_nodes":"127","size_leaf_vector":"1"}},{"base_weights":[-1.2008391E-5,-7.0482666E1,7.055361E1,-1.0520379E2,-3.4652447E1,3.585736E1,1.06267334E2,-1.2291661E2,-8.692411E1,-5.176401E1,-1.6996956E1,1.8290035E1,5.390645E1,8.914287E1,1.239467E2,-1.31785E2,-1.1348936E2,-9.5720634E1,-7.8141174E1,-6.05802E1,-4.2942207E1,-2.536628E1,-8.207696E0,9.470613E0,2.7574942E1,4.50974E1,6.2720352E1,8.03708E1,9.792352E1,1.1569448E2,1.3274956E2,-1.3628091E2,-1.267202E2,-1.178976E2,-1.09090614E2,-1.001606E2,-9.1272095E1,-8.247387E1,-7.38118E1,-6.5016136E1,-5.6145157E1,-4.7341812E1,-3.8533268E1,-2.9184761E1,-2.038087E1,-1.2136572E1,-3.7809134E0,5.0886245E0,1.4484699E1,2.3153383E1,3.2007774E1,4.072559E1,4.947359E1,5.8359024E1,6.707743E1,7.597795E1,8.476917E1,9.34854E1,1.023472E2,1.1128066E2,1.20093124E2,1.2887372E2,1.3717271E2,-4.1574526E0,-4.0016093E0,-3.8698654E0,-3.73272E0,-3.4674563E0,-3.6023684E0,-3.2046728E0,-3.340263E0,-3.0729427E0,-2.9365401E0,-2.8060474E0,-2.6699252E0,-2.5406158E0,-2.4074607E0,-2.143972E0,-2.2808378E0,-1.8774415E0,-2.0146248E0,-1.7509542E0,-1.61741E0,-1.3491166E0,-1.4861526E0,-1.0868329E0,-1.2243406E0,-9.420215E-1,-7.922802E-1,-5.4367185E-1,-6.764978E-1,-4.3003073E-1,-2.9388908E-1,-4.54267E-2,-1.7962317E-1,8.487271E-2,2.3684746E-1,5.060707E-1,3.709176E-1,6.2726516E-1,7.615783E-1,8.9402515E-1,1.0260844E0,1.2882481E0,1.1543801E0,1.5518011E0,1.4163483E0,1.6817484E0,1.8196111E0,2.0833247E0,1.9469911E0,2.3515477E0,2.2142546E0,2.4758766E0,2.609953E0,2.878853E0,2.7400875E0,3.1373637E0,3.0015008E0,3.409667E0,3.2752984E0,3.5349157E0,3.6698015E0,3.9322274E0,3.7962646E0,4.187599E0,4.048223E0],"categories":[],"categories_nodes":[],"categories_segments":[],"categories_sizes":[],"default_left":[0,0,0,0,0,0,0,0,0,0,0,0,0,0,0,0,0,0,0,0,0,0,0,0,0,0,0,0,0,0,0,0,0,0,0,0,0,0,0,0,0,0,0,0,0,0,0,0,0,0,0,0,0,0,0,0,0,0,0,0,0,0,0,0,0,0,0,0,0,0,0,0,0,0,0,0,0,0,0,0,0,0,0,0,0,0,0,0,0,0,0,0,0,0,0,0,0,0,0,0,0,0,0,0,0,0,0,0,0,0,0,0,0,0,0,0,0,0,0,0,0,0,0,0,0,0,0],"id":8,"left_children":[1,3,5,7,9,11,13,15,17,19,21,23,25,27,29,31,33,35,37,39,41,43,45,47,49,51,53,55,57,59,61,63,65,67,69,71,73,75,77,79,81,83,85,87,89,91,93,95,97,99,101,103,105,107,109,111,113,115,117,119,121,123,125,-1,-1,-1,-1,-1,-1,-1,-1,-1,-1,-1,-1,-1,-1,-1,-1,-1,-1,-1,-1,-1,-1,-1,-1,-1,-1,-1,-1,-1,-1,-1,-1,-1,-1,-1,-1,-1,-1,-1,-1,-1,-1,-1,-1,-1,-1,-1,-1,-1,-1,-1,-1,-1,-1,-1,-1,-1,-1,-1,-1,-1,-1,-1,-1],"loss_changes":[1.8578107E9,2.3250093E8,2.3134586E8,3.072096E7,2.7786872E7,3.0026576E7,2.7842496E7,4.014912E6,3.601536E6,3.630112E6,3.329934E6,3.929766E6,3.623824E6,3.592128E6,3.272832E6,5.4816E5,4.4032E5,4.5176E5,4.3248E5,4.55896E5,4.51108E5,4.40847E5,3.8402788E5,5.40759E5,4.57488E5,4.45E5,4.3972E5,4.45392E5,4.48912E5,4.40384E5,3.57664E5,6.9008E4,4.5024E4,4.5024E4,4.792E4,5.0272E4,5.1728E4,5.0704E4,5.5412E4,5.656E4,5.476E4,5.8624E4,5.9804E4,7.9916E4,4.887825E4,6.0032375E4,5.193161E4,8.327819E4,5.783625E4,5.81395E4,5.5523E4,5.656E4,5.7044E4,5.824E4,5.5652E4,5.536E4,5.1128E4,5.3344E4,4.944E4,4.5952E4,4.4672E4,4.3376E4,3.6176E4,0E0,0E0,0E0,0E0,0E0,0E0,0E0,0E0,0E0,0E0,0E0,0E0,0E0,0E0,0E0,0E0,0E0,0E0,0E0,0E0,0E0,0E0,0E0,0E0,0E0,0E0,0E0,0E0,0E0,0E0,0E0,0E0,0E0,0E0,0E0,0E0,0E0,0E0,0E0,0E0,0E0,0E0,0E0,0E0,0E0,0E0,0E0,0E0,0E0,0E0,0E0,0E0,0E0,0E0,0E0,0E0,0E0,0E0,0E0,0E0,0E0,0E0,0E0,0E0],"parents":[2147483647,0,0,1,1,2,2,3,3,4,4,5,5,6,6,7,7,8,8,9,9,10,10,11,11,12,12,13,13,14,14,15,15,16,16,17,17,18,18,19,19,20,20,21,21,22,22,23,23,24,24,25,25,26,26,27,27,28,28,29,29,30,30,31,31,32,32,33,33,34,34,35,35,36,36,37,37,38,38,39,39,40,40,41,41,42,42,43,43,44,44,45,45,46,46,47,47,48,48,49,49,50,50,51,51,52,52,53,53,54,54,55,55,56,56,57,57,58,58,59,59,60,60,61,61,62,62],"right_children":[2,4,6,8,10,12,14,16,18,20,22,24,26,28,30,32,34,36,38,40,42,44,46,48,50,52,54,56,58,60,62,64,66,68,70,72,74,76,78,80,82,84,86,88,90,92,94,96,98,100,102,104,106,108,110,112,114,116,118,120,122,124,126,-1,-1,-1,-1,-1,-1,-1,-1,-1,-1,-1,-1,-1,-1,-1,-1,-1,-1,-1,-1,-1,-1,-1,-1,-1,-1,-1,-1,-1,-1,-1,-1,-1,-1,-1,-1,-1,-1,-1,-1,-1,-1,-1,-1,-1,-1,-1,-1,-1,-1,-1,-1,-1,-1,-1,-1,-1,-1,-1,-1,-1,-1,-1,-1],"split_conditions":[2.2331793E-3,-8.5223836E-1,8.7935543E-1,-1.2851559E0,-4.193362E-1,4.4612363E-1,1.3123012E0,-1.5021566E0,-1.0674605E0,-6.3579845E-1,-2.0445769E-1,2.3071998E-1,6.6172874E-1,1.0944327E0,1.52891E0,-1.6104435E0,-1.3943336E0,-1.174539E0,-9.599141E-1,-7.4374264E-1,-5.268786E-1,-2.973751E-1,-9.512266E-2,1.2446698E-1,3.3968058E-1,5.54341E-1,7.697578E-1,9.8697007E-1,1.2030828E0,1.4211684E0,1.6364745E0,-1.6662884E0,-1.5567421E0,-3.9278533E-2,9.7016233E-4,-1.2307297E0,-1.1209961E0,-1.0133777E0,-3.9278533E-2,-9.534024E-2,-6.891917E-1,-6.677389E-2,-1.2427217E-2,-3.5190648E-1,-2.57677E-2,-1.4806914E-1,-1.2427217E-2,6.9470584E-2,-9.534024E-2,2.8485426E-1,3.93161E-1,2.6487093E-2,9.7016233E-4,7.170421E-1,-8.029282E-2,-6.677389E-2,1.0403972E0,-1.0878729E-1,2.6487093E-2,-1.0878729E-1,1.4747208E0,2.6487093E-2,-1.0878729E-1,-4.1574526E0,-4.0016093E0,-3.8698654E0,-3.73272E0,-3.4674563E0,-3.6023684E0,-3.2046728E0,-3.340263E0,-3.0729427E0,-2.9365401E0,-2.8060474E0,-2.6699252E0,-2.5406158E0,-2.4074607E0,-2.143972E0,-2.2808378E0,-1.8774415E0,-2.0146248E0,-1.7509542E0,-1.61741E0,-1.3491166E0,-1.4861526E0,-1.0868329E0,-1.2243406E0,-9.420215E-1,-7.922802E-1,-5.4367185E-1,-6.764978E-1,-4.3003073E-1,-2.9388908E-1,-4.54267E-2,-1.7962317E-1,8.487271E-2,2.3684746E-1,5.060707E-1,3.709176E-1,6.2726516E-1,7.615783E-1,8.9402515E-1,1.0260844E0,1.2882481E0,1.1543801E0,1.5518011E0,1.4163483E0,1.6817484E0,1.8196111E0,2.0833247E0,1.9469911E0,2.3515477E0,2.2142546E0,2.4758766E0,2.609953E0,2.878853E0,2.7400875E0,3.1373637E0,3.0015008E0,3.409667E0,3.2752984E0,3.5349157E0,3.6698015E0,3.9322274E0,3.7962646E0,4.187599E0,4.048223E0],"split_indices":[1,1,1,1,1,1,1,1,1,1,1,1,1,1,1,1,1,1,1,1,1,1,1,1,1,1,1,1,1,1,1,1,1,3,3,1,1,1,3,3,1,3,3,1,3,1,3,1,3,1,1,3,3,1,3,3,1,3,3,3,1,3,3,0,0,0,0,0,0,0,0,0,0,0,0,0,0,0,0,0,0,0,0,0,0,0,0,0,0,0,0,0,0,0,0,0,0,0,0,0,0,0,0,0,0,0,0,0,0,0,0,0,0,0,0,0,0,0,0,0,0,0,0,0,0,0,0],"split_type":[0,0,0,0,0,0,0,0,0,0,0,0,0,0,0,0,0,0,0,0,0,0,0,0,0,0,0,0,0,0,0,0,0,0,0,0,0,0,0,0,0,0,0,0,0,0,0,0,0,0,0,0,0,0,0,0,0,0,0,0,0,0,0,0,0,0,0,0,0,0,0,0,0,0,0,0,0,0,0,0,0,0,0,0,0,0,0,0,0,0,0,0,0,0,0,0,0,0,0,0,0,0,0,0,0,0,0,0,0,0,0,0,0,0,0,0,0,0,0,0,0,0,0,0,0,0,0],"sum_hessian":[3.73592E5,1.8689E5,1.86702E5,9.4913E4,9.1977E4,9.4701E4,9.2001E4,4.8201E4,4.6712E4,4.6707E4,4.527E4,4.7992E4,4.6709E4,4.6737E4,4.5264E4,2.483E4,2.3371E4,2.3333E4,2.3379E4,2.3358E4,2.3349E4,2.3188E4,2.2082E4,2.4614E4,2.3378E4,2.3364E4,2.3345E4,2.3385E4,2.3352E4,2.337E4,2.1894E4,1.314E4,1.169E4,1.166E4,1.1711E4,1.1667E4,1.1666E4,1.1676E4,1.1703E4,1.1671E4,1.1687E4,1.1682E4,1.1667E4,1.3128E4,1.006E4,1.1698E4,1.0384E4,1.3136E4,1.1478E4,1.1707E4,1.1671E4,1.1693E4,1.1671E4,1.1674E4,1.1671E4,1.1709E4,1.1676E4,1.1668E4,1.1684E4,1.1678E4,1.1692E4,1.1685E4,1.0209E4,7.294E3,5.846E3,5.844E3,5.846E3,5.682E3,5.978E3,5.858E3,5.853E3,5.818E3,5.849E3,5.828E3,5.838E3,5.835E3,5.841E3,5.701E3,6.002E3,5.471E3,6.2E3,5.846E3,5.841E3,5.628E3,6.054E3,5.807E3,5.86E3,7.294E3,5.834E3,4.933E3,5.127E3,6.03E3,5.668E3,5.123E3,5.261E3,7.278E3,5.858E3,5.4E3,6.078E3,5.843E3,5.864E3,5.827E3,5.844E3,5.877E3,5.816E3,5.836E3,5.835E3,5.842E3,5.832E3,5.578E3,6.093E3,5.534E3,6.175E3,5.843E3,5.833E3,5.401E3,6.267E3,5.904E3,5.78E3,5.461E3,6.217E3,5.835E3,5.857E3,5.983E3,5.702E3,4.875E3,5.334E3],"tree_param":{"num_deleted":"0","num_feature":"9","num_nodes":"127","size_leaf_vector":"1"}},{"base_weights":[-5.8543133E-6,-6.890643E1,6.7904495E1,-1.0311998E2,-3.523034E1,3.319658E1,1.02022064E2,-1.2030314E2,-8.6463974E1,-5.289689E1,-1.8633282E1,1.5602261E1,4.963294E1,8.433984E1,1.1914533E2,-1.2890775E2,-1.1223674E2,-9.501497E1,-7.791477E1,-6.1452896E1,-4.4863705E1,-2.7751314E1,-1.0050075E1,7.0400867E0,2.3586416E1,4.0542572E1,5.81885E1,7.528531E1,9.2324E1,1.10063934E2,1.2768836E2,-1.3270618E2,-1.24543236E2,-1.1708596E2,-1.0844645E2,-9.932856E1,-9.0683975E1,-8.211344E1,-7.371734E1,-6.582702E1,-5.7598038E1,-4.9141075E1,-4.0593105E1,-3.20338E1,-2.347488E1,-1.4971658E1,-5.80254E0,2.7276883E0,1.0744203E1,1.9334337E1,2.7828455E1,3.628106E1,4.4803535E1,5.3382725E1,6.2448044E1,7.100055E1,7.9028656E1,8.746418E1,9.664E1,1.05204094E2,1.1383536E2,1.2284116E2,1.3199205E2,-4.070036E0,-3.9273741E0,-3.6658087E0,-3.8020098E0,-3.44309E0,-3.5738137E0,-3.317124E0,-3.1730905E0,-3.047991E0,-2.9115396E0,-2.6505904E0,-2.7844825E0,-2.3961387E0,-2.5279417E0,-2.1433012E0,-2.276446E0,-1.9103228E0,-2.0410666E0,-1.6637887E0,-1.7950507E0,-1.4069984E0,-1.5417447E0,-1.14712E0,-1.2850604E0,-8.911277E-1,-1.0250006E0,-6.3706505E-1,-7.687513E-1,-3.7869057E-1,-5.1311296E-1,-2.4090852E-1,-9.306092E-2,1.4776164E-1,1.3803598E-2,3.9071217E-1,2.5743997E-1,6.449633E-1,5.119947E-1,9.01679E-1,7.655402E-1,1.1561129E0,1.0258858E0,1.4135E0,1.2793257E0,1.670519E0,1.5344535E0,1.8085371E0,1.9544425E0,2.1948855E0,2.0609272E0,2.4375167E0,2.3021376E0,2.688529E0,2.5586166E0,2.833726E0,2.9804728E0,3.2229064E0,3.0894654E0,3.3329687E0,3.4803474E0,3.6189535E0,3.7509763E0,3.8934085E0,4.042113E0],"categories":[],"categories_nodes":[],"categories_segments":[],"categories_sizes":[],"default_left":[0,0,0,0,0,0,0,0,0,0,0,0,0,0,0,0,0,0,0,0,0,0,0,0,0,0,0,0,0,0,0,0,0,0,0,0,0,0,0,0,0,0,0,0,0,0,0,0,0,0,0,0,0,0,0,0,0,0,0,0,0,0,0,0,0,0,0,0,0,0,0,0,0,0,0,0,0,0,0,0,0,0,0,0,0,0,0,0,0,0,0,0,0,0,0,0,0,0,0,0,0,0,0,0,0,0,0,0,0,0,0,0,0,0,0,0,0,0,0,0,0,0,0,0,0,0,0],"id":9,"left_children":[1,3,5,7,9,11,13,15,17,19,21,23,25,27,29,31,33,35,37,39,41,43,45,47,49,51,53,55,57,59,61,63,65,67,69,71,73,75,77,79,81,83,85,87,89,91,93,95,97,99,101,103,105,107,109,111,113,115,117,119,121,123,125,-1,-1,-1,-1,-1,-1,-1,-1,-1,-1,-1,-1,-1,-1,-1,-1,-1,-1,-1,-1,-1,-1,-1,-1,-1,-1,-1,-1,-1,-1,-1,-1,-1,-1,-1,-1,-1,-1,-1,-1,-1,-1,-1,-1,-1,-1,-1,-1,-1,-1,-1,-1,-1,-1,-1,-1,-1,-1,-1,-1,-1,-1,-1,-1],"loss_changes":[1.7480673E9,2.1364371E8,2.228121E8,2.631456E7,2.7399736E7,2.6973688E7,2.8720192E7,3.12768E6,3.407264E6,3.108472E6,3.770776E6,3.079733E6,3.748248E6,3.368096E6,3.725824E6,3.46528E5,4.16928E5,4.27184E5,4.05696E5,3.65768E5,4.2454E5,4.2713E5,5.1880725E5,3.4725325E5,4.1997E5,4.23004E5,5.05176E5,3.45368E5,5.1184E5,4.16416E5,5.01792E5,4.4352E4,3.704E4,3.4752E4,6.2976E4,5.0584E4,4.976E4,4.9568E4,5.212E4,4.438E4,5.2444E4,5.64E4,6.0112E4,5.6974E4,5.57625E4,5.7361E4,8.0138875E4,5.0066305E4,5.75485E4,5.6799E4,5.9283E4,5.37E4,5.6374E4,5.7202E4,7.296E4,4.5832E4,5.316E4,4.7104E4,6.8224E4,3.952E4,6.5408E4,4.152E4,6.2304E4,0E0,0E0,0E0,0E0,0E0,0E0,0E0,0E0,0E0,0E0,0E0,0E0,0E0,0E0,0E0,0E0,0E0,0E0,0E0,0E0,0E0,0E0,0E0,0E0,0E0,0E0,0E0,0E0,0E0,0E0,0E0,0E0,0E0,0E0,0E0,0E0,0E0,0E0,0E0,0E0,0E0,0E0,0E0,0E0,0E0,0E0,0E0,0E0,0E0,0E0,0E0,0E0,0E0,0E0,0E0,0E0,0E0,0E0,0E0,0E0,0E0,0E0,0E0,0E0],"parents":[2147483647,0,0,1,1,2,2,3,3,4,4,5,5,6,6,7,7,8,8,9,9,10,10,11,11,12,12,13,13,14,14,15,15,16,16,17,17,18,18,19,19,20,20,21,21,22,22,23,23,24,24,25,25,26,26,27,27,28,28,29,29,30,30,31,31,32,32,33,33,34,34,35,35,36,36,37,37,38,38,39,39,40,40,41,41,42,42,43,43,44,44,45,45,46,46,47,47,48,48,49,49,50,50,51,51,52,52,53,53,54,54,55,55,56,56,57,57,58,58,59,59,60,60,61,61,62,62],"right_children":[2,4,6,8,10,12,14,16,18,20,22,24,26,28,30,32,34,36,38,40,42,44,46,48,50,52,54,56,58,60,62,64,66,68,70,72,74,76,78,80,82,84,86,88,90,92,94,96,98,100,102,104,106,108,110,112,114,116,118,120,122,124,126,-1,-1,-1,-1,-1,-1,-1,-1,-1,-1,-1,-1,-1,-1,-1,-1,-1,-1,-1,-1,-1,-1,-1,-1,-1,-1,-1,-1,-1,-1,-1,-1,-1,-1,-1,-1,-1,-1,-1,-1,-1,-1,-1,-1,-1,-1,-1,-1,-1,-1,-1,-1,-1,-1,-1,-1,-1,-1,-1,-1,-1,-1,-1,-1],"split_conditions":[-1.1358997E-2,-8.79781E-1,8.522901E-1,-1.3125702E0,-4.588044E-1,4.06506E-1,1.2847437E0,-1.5299867E0,-1.093821E0,-6.759069E-1,-2.4361436E-1,1.9070163E-1,6.208047E-1,1.0537889E0,1.5017649E0,-1.6240883E0,-1.4340303E0,-1.2019044E0,-9.866121E-1,-7.841696E-1,-5.677897E-1,-3.5190648E-1,-1.3627546E-1,8.176503E-2,2.9812232E-1,5.1373273E-1,7.301069E-1,9.46682E-1,1.1623496E0,1.3801761E0,1.6092978E0,-1.693831E0,-5.3046532E-2,-9.534024E-2,-1.3664238E0,-1.2587007E0,-6.677389E-2,-5.3046532E-2,-3.9278533E-2,5.457537E-2,2.6487093E-2,-1.2427217E-2,-3.9278533E-2,-6.677389E-2,-2.57677E-2,-8.029282E-2,-6.797753E-2,9.7016233E-4,-3.9278533E-2,4.134735E-2,4.134735E-2,-5.3046532E-2,-5.3046532E-2,-2.57677E-2,7.96696E-1,6.818471E-2,1.4643587E-2,2.6487093E-2,1.2302256E0,-2.57677E-2,1.434478E0,1.5555311E0,1.6766546E0,-4.070036E0,-3.9273741E0,-3.6658087E0,-3.8020098E0,-3.44309E0,-3.5738137E0,-3.317124E0,-3.1730905E0,-3.047991E0,-2.9115396E0,-2.6505904E0,-2.7844825E0,-2.3961387E0,-2.5279417E0,-2.1433012E0,-2.276446E0,-1.9103228E0,-2.0410666E0,-1.6637887E0,-1.7950507E0,-1.4069984E0,-1.5417447E0,-1.14712E0,-1.2850604E0,-8.911277E-1,-1.0250006E0,-6.3706505E-1,-7.687513E-1,-3.7869057E-1,-5.1311296E-1,-2.4090852E-1,-9.306092E-2,1.4776164E-1,1.3803598E-2,3.9071217E-1,2.5743997E-1,6.449633E-1,5.119947E-1,9.01679E-1,7.655402E-1,1.1561129E0,1.0258858E0,1.4135E0,1.2793257E0,1.670519E0,1.5344535E0,1.8085371E0,1.9544425E0,2.1948855E0,2.0609272E0,2.4375167E0,2.3021376E0,2.688529E0,2.5586166E0,2.833726E0,2.9804728E0,3.2229064E0,3.0894654E0,3.3329687E0,3.4803474E0,3.6189535E0,3.7509763E0,3.8934085E0,4.042113E0],"split_indices":[1,1,1,1,1,1,1,1,1,1,1,1,1,1,1,1,1,1,1,1,1,1,1,1,1,1,1,1,1,1,1,1,3,3,1,1,3,3,3,3,3,3,3,3,3,3,1,3,3,3,3,3,3,3,1,3,3,3,1,3,1,1,1,0,0,0,0,0,0,0,0,0,0,0,0,0,0,0,0,0,0,0,0,0,0,0,0,0,0,0,0,0,0,0,0,0,0,0,0,0,0,0,0,0,0,0,0,0,0,0,0,0,0,0,0,0,0,0,0,0,0,0,0,0,0,0,0],"split_type":[0,0,0,0,0,0,0,0,0,0,0,0,0,0,0,0,0,0,0,0,0,0,0,0,0,0,0,0,0,0,0,0,0,0,0,0,0,0,0,0,0,0,0,0,0,0,0,0,0,0,0,0,0,0,0,0,0,0,0,0,0,0,0,0,0,0,0,0,0,0,0,0,0,0,0,0,0,0,0,0,0,0,0,0,0,0,0,0,0,0,0,0,0,0,0,0,0,0,0,0,0,0,0,0,0,0,0,0,0,0,0,0,0,0,0,0,0,0,0,0,0,0,0,0,0,0,0],"sum_hessian":[3.73592E5,1.85428E5,1.88164E5,9.1979E4,9.3449E4,9.3276E4,9.4888E4,4.527E4,4.6709E4,4.5265E4,4.8184E4,4.5052E4,4.8224E4,4.6685E4,4.8203E4,2.1897E4,2.3373E4,2.3347E4,2.3362E4,2.1916E4,2.3349E4,2.3363E4,2.4821E4,2.174E4,2.3312E4,2.3384E4,2.484E4,2.1881E4,2.4804E4,2.3372E4,2.4831E4,1.1692E4,1.0205E4,1.0241E4,1.3132E4,1.1686E4,1.1661E4,1.167E4,1.1692E4,1.0259E4,1.1657E4,1.166E4,1.1689E4,1.167E4,1.1693E4,1.1497E4,1.3324E4,1.0046E4,1.1694E4,1.1645E4,1.1667E4,1.1696E4,1.1688E4,1.1678E4,1.3162E4,1.0212E4,1.1669E4,1.1677E4,1.3127E4,1.0225E4,1.3147E4,1.1692E4,1.3139E4,4.382E3,7.31E3,4.951E3,5.254E3,4.824E3,5.417E3,7.299E3,5.833E3,5.829E3,5.857E3,5.591E3,6.07E3,5.733E3,5.937E3,5.718E3,5.974E3,5.214E3,5.045E3,5.973E3,5.684E3,5.853E3,5.807E3,5.709E3,5.98E3,5.585E3,6.085E3,5.733E3,5.96E3,5.474E3,6.023E3,7.3E3,6.024E3,5.101E3,4.945E3,5.691E3,6.003E3,5.954E3,5.691E3,5.934E3,5.733E3,5.609E3,6.087E3,5.633E3,6.055E3,5.741E3,5.937E3,7.32E3,5.842E3,5.251E3,4.961E3,5.906E3,5.763E3,5.85E3,5.827E3,7.29E3,5.837E3,5.084E3,5.141E3,5.847E3,7.3E3,5.85E3,5.842E3,7.303E3,5.836E3],"tree_param":{"num_deleted":"0","num_feature":"9","num_nodes":"127","size_leaf_vector":"1"}},{"base_weights":[-1.3856611E-5,-6.586761E1,6.684089E1,-9.8989716E1,-3.2155193E1,3.419583E1,9.999049E1,-1.1565535E2,-8.179074E1,-4.8201584E1,-1.500936E1,1.8180077E1,5.125558E1,8.387523E1,1.16627975E2,-1.2400743E2,-1.0677695E2,-9.00728E1,-7.352148E1,-5.6508987E1,-3.937722E1,-2.2816694E1,-6.7410383E0,9.88267E0,2.6990786E1,4.347509E1,5.95626E1,7.6104355E1,9.267605E1,1.08864525E2,1.24909454E2,-1.2823961E2,-1.1923973E2,-1.1092212E2,-1.026407E2,-9.425899E1,-8.587853E1,-7.760012E1,-6.944595E1,-6.068368E1,-5.1800186E1,-4.347159E1,-3.5277725E1,-2.6888197E1,-1.8692682E1,-1.037083E1,-2.5950387E0,5.686471E0,1.4597208E1,2.287333E1,3.1120754E1,3.9370884E1,4.757628E1,5.597941E1,6.3649036E1,7.197828E1,8.075076E1,8.903816E1,9.6829956E1,1.0472035E2,1.1299442E2,1.2125471E2,1.2908032E2,-3.91237E0,-3.7652063E0,-3.5136068E0,-3.646317E0,-3.2615297E0,-3.3899667E0,-3.0110624E0,-3.1426847E0,-2.7595897E0,-2.891761E0,-2.5134494E0,-2.644153E0,-2.2620296E0,-2.3903913E0,-2.017112E0,-2.1459754E0,-1.900916E0,-1.7560093E0,-1.4903036E0,-1.6185956E0,-1.2369893E0,-1.3671939E0,-9.9423844E-1,-1.1235055E0,-7.3998284E-1,-8.677709E-1,-4.9930885E-1,-6.2597996E-1,-2.419351E-1,-3.7486494E-1,-8.132695E-3,-1.3980158E-1,9.5736496E-2,2.3358667E-1,5.010521E-1,3.7643275E-1,7.531684E-1,6.241607E-1,9.9861556E-1,8.701E-1,1.2496587E0,1.1230145E0,1.4951062E0,1.3682399E0,1.749631E0,1.6160702E0,1.9805897E0,1.8476611E0,2.081183E0,2.2213E0,2.4863496E0,2.3591096E0,2.739265E0,2.6056857E0,2.9723306E0,2.8411095E0,3.2095177E0,3.0814543E0,3.4565775E0,3.3249614E0,3.7040806E0,3.5721931E0,3.938338E0,3.8031404E0],"categories":[],"categories_nodes":[],"categories_segments":[],"categories_sizes":[],"default_left":[0,0,0,0,0,0,0,0,0,0,0,0,0,0,0,0,0,0,0,0,0,0,0,0,0,0,0,0,0,0,0,0,0,0,0,0,0,0,0,0,0,0,0,0,0,0,0,0,0,0,0,0,0,0,0,0,0,0,0,0,0,0,0,0,0,0,0,0,0,0,0,0,0,0,0,0,0,0,0,0,0,0,0,0,0,0,0,0,0,0,0,0,0,0,0,0,0,0,0,0,0,0,0,0,0,0,0,0,0,0,0,0,0,0,0,0,0,0,0,0,0,0,0,0,0,0,0],"id":10,"left_children":[1,3,5,7,9,11,13,15,17,19,21,23,25,27,29,31,33,35,37,39,41,43,45,47,49,51,53,55,57,59,61,63,65,67,69,71,73,75,77,79,81,83,85,87,89,91,93,95,97,99,101,103,105,107,109,111,113,115,117,119,121,123,125,-1,-1,-1,-1,-1,-1,-1,-1,-1,-1,-1,-1,-1,-1,-1,-1,-1,-1,-1,-1,-1,-1,-1,-1,-1,-1,-1,-1,-1,-1,-1,-1,-1,-1,-1,-1,-1,-1,-1,-1,-1,-1,-1,-1,-1,-1,-1,-1,-1,-1,-1,-1,-1,-1,-1,-1,-1,-1,-1,-1,-1,-1,-1,-1],"loss_changes":[1.6448033E9,2.1010918E8,2.0066022E8,2.719584E7,2.5656128E7,2.5525352E7,2.46576E7,3.561024E6,3.192576E6,3.529072E6,2.910178E6,3.52264E6,2.921264E6,3.189376E6,2.896576E6,4.8576E5,3.89344E5,4.01616E5,3.8324E5,4.84576E5,3.90596E5,3.88846E5,3.2950362E5,4.909145E5,3.96712E5,3.91376E5,3.1676E5,4.7016E5,3.22496E5,3.8816E5,3.1808E5,6.1664E4,4.2848E4,4.1104E4,4.5776E4,4.7696E4,4.7904E4,4.74E4,4.9132E4,7.204E4,5.0652E4,5.309E4,5.2964E4,5.2104E4,5.09675E4,5.710875E4,4.905879E4,6.8784375E4,5.019775E4,5.3521E4,5.2545E4,5.0138E4,4.97E4,5.45E4,4.5816E4,6.5664E4,4.596E4,5.0008E4,3.9464E4,4.2024E4,4.3488E4,4.1776E4,3.5168E4,0E0,0E0,0E0,0E0,0E0,0E0,0E0,0E0,0E0,0E0,0E0,0E0,0E0,0E0,0E0,0E0,0E0,0E0,0E0,0E0,0E0,0E0,0E0,0E0,0E0,0E0,0E0,0E0,0E0,0E0,0E0,0E0,0E0,0E0,0E0,0E0,0E0,0E0,0E0,0E0,0E0,0E0,0E0,0E0,0E0,0E0,0E0,0E0,0E0,0E0,0E0,0E0,0E0,0E0,0E0,0E0,0E0,0E0,0E0,0E0,0E0,0E0,0E0,0E0],"parents":[2147483647,0,0,1,1,2,2,3,3,4,4,5,5,6,6,7,7,8,8,9,9,10,10,11,11,12,12,13,13,14,14,15,15,16,16,17,17,18,18,19,19,20,20,21,21,22,22,23,23,24,24,25,25,26,26,27,27,28,28,29,29,30,30,31,31,32,32,33,33,34,34,35,35,36,36,37,37,38,38,39,39,40,40,41,41,42,42,43,43,44,44,45,45,46,46,47,47,48,48,49,49,50,50,51,51,52,52,53,53,54,54,55,55,56,56,57,57,58,58,59,59,60,60,61,61,62,62],"right_children":[2,4,6,8,10,12,14,16,18,20,22,24,26,28,30,32,34,36,38,40,42,44,46,48,50,52,54,56,58,60,62,64,66,68,70,72,74,76,78,80,82,84,86,88,90,92,94,96,98,100,102,104,106,108,110,112,114,116,118,120,122,124,126,-1,-1,-1,-1,-1,-1,-1,-1,-1,-1,-1,-1,-1,-1,-1,-1,-1,-1,-1,-1,-1,-1,-1,-1,-1,-1,-1,-1,-1,-1,-1,-1,-1,-1,-1,-1,-1,-1,-1,-1,-1,-1,-1,-1,-1,-1,-1,-1,-1,-1,-1,-1,-1,-1,-1,-1,-1,-1,-1,-1,-1,-1,-1,-1],"split_conditions":[1.3639959E-2,-8.5223836E-1,8.7935543E-1,-1.2851559E0,-4.0561455E-1,4.5980728E-1,1.3123012E0,-1.5021566E0,-1.0674605E0,-6.222192E-1,-1.9069138E-1,2.443687E-1,6.754789E-1,1.1071733E0,1.52891E0,-1.6104435E0,-1.3943336E0,-1.174539E0,-9.599141E-1,-7.300755E-1,-5.1379526E-1,-2.973751E-1,-8.181957E-2,1.3667269E-1,3.5346267E-1,5.67938E-1,7.828295E-1,1.0006269E0,1.2164847E0,1.4211684E0,1.6364745E0,-1.6662884E0,8.175116E-2,-3.9278533E-2,-5.3046532E-2,-5.3046532E-2,8.175116E-2,-6.677389E-2,-3.9278533E-2,-7.976706E-1,1.4643587E-2,-6.677389E-2,2.6487093E-2,-8.029282E-2,5.457537E-2,-6.677389E-2,-1.0878729E-1,6.9470584E-2,-2.57677E-2,-5.3046532E-2,-2.57677E-2,-1.22890756E-1,-1.0878729E-1,-1.0878729E-1,-1.22890756E-1,9.3295616E-1,-2.57677E-2,-2.57677E-2,-3.9278533E-2,-1.0878729E-1,-3.9278533E-2,-3.9278533E-2,9.7016233E-4,-3.91237E0,-3.7652063E0,-3.5136068E0,-3.646317E0,-3.2615297E0,-3.3899667E0,-3.0110624E0,-3.1426847E0,-2.7595897E0,-2.891761E0,-2.5134494E0,-2.644153E0,-2.2620296E0,-2.3903913E0,-2.017112E0,-2.1459754E0,-1.900916E0,-1.7560093E0,-1.4903036E0,-1.6185956E0,-1.2369893E0,-1.3671939E0,-9.9423844E-1,-1.1235055E0,-7.3998284E-1,-8.677709E-1,-4.9930885E-1,-6.2597996E-1,-2.419351E-1,-3.7486494E-1,-8.132695E-3,-1.3980158E-1,9.5736496E-2,2.3358667E-1,5.010521E-1,3.7643275E-1,7.531684E-1,6.241607E-1,9.9861556E-1,8.701E-1,1.2496587E0,1.1230145E0,1.4951062E0,1.3682399E0,1.749631E0,1.6160702E0,1.9805897E0,1.8476611E0,2.081183E0,2.2213E0,2.4863496E0,2.3591096E0,2.739265E0,2.6056857E0,2.9723306E0,2.8411095E0,3.2095177E0,3.0814543E0,3.4565775E0,3.3249614E0,3.7040806E0,3.5721931E0,3.938338E0,3.8031404E0],"split_indices":[1,1,1,1,1,1,1,1,1,1,1,1,1,1,1,1,1,1,1,1,1,1,1,1,1,1,1,1,1,1,1,1,3,3,3,3,3,3,3,1,3,3,3,3,3,3,3,1,3,3,3,3,3,3,3,1,3,3,3,3,3,3,3,0,0,0,0,0,0,0,0,0,0,0,0,0,0,0,0,0,0,0,0,0,0,0,0,0,0,0,0,0,0,0,0,0,0,0,0,0,0,0,0,0,0,0,0,0,0,0,0,0,0,0,0,0,0,0,0,0,0,0,0,0,0,0,0],"split_type":[0,0,0,0,0,0,0,0,0,0,0,0,0,0,0,0,0,0,0,0,0,0,0,0,0,0,0,0,0,0,0,0,0,0,0,0,0,0,0,0,0,0,0,0,0,0,0,0,0,0,0,0,0,0,0,0,0,0,0,0,0,0,0,0,0,0,0,0,0,0,0,0,0,0,0,0,0,0,0,0,0,0,0,0,0,0,0,0,0,0,0,0,0,0,0,0,0,0,0,0,0,0,0,0,0,0,0,0,0,0,0,0,0,0,0,0,0,0,0,0,0,0,0,0,0,0,0],"sum_hessian":[3.73592E5,1.88166E5,1.85426E5,9.4913E4,9.3253E4,9.3425E4,9.2001E4,4.8201E4,4.6712E4,4.817E4,4.5083E4,4.8188E4,4.5237E4,4.6737E4,4.5264E4,2.483E4,2.3371E4,2.3333E4,2.3379E4,2.4809E4,2.3361E4,2.3187E4,2.1896E4,2.4818E4,2.337E4,2.3362E4,2.1875E4,2.4826E4,2.1911E4,2.337E4,2.1894E4,1.314E4,1.169E4,1.166E4,1.1711E4,1.1667E4,1.1666E4,1.1676E4,1.1703E4,1.3144E4,1.1665E4,1.1683E4,1.1678E4,1.1665E4,1.1522E4,1.1674E4,1.0222E4,1.3132E4,1.1686E4,1.1706E4,1.1664E4,1.1682E4,1.168E4,1.1663E4,1.0212E4,1.3158E4,1.1668E4,1.1693E4,1.0218E4,1.1678E4,1.1692E4,1.1685E4,1.0209E4,7.294E3,5.846E3,6.116E3,5.574E3,5.682E3,5.978E3,5.67E3,6.041E3,5.67E3,5.997E3,6.071E3,5.595E3,5.693E3,5.983E3,5.701E3,6.002E3,5.838E3,7.306E3,5.885E3,5.78E3,5.667E3,6.016E3,5.896E3,5.782E3,5.586E3,6.079E3,5.935E3,5.587E3,5.6E3,6.074E3,4.81E3,5.412E3,6.002E3,7.13E3,5.762E3,5.924E3,5.624E3,6.082E3,5.758E3,5.906E3,5.351E3,6.331E3,5.425E3,6.255E3,5.516E3,6.147E3,4.734E3,5.478E3,5.833E3,7.325E3,5.796E3,5.872E3,5.71E3,5.983E3,4.945E3,5.273E3,5.461E3,6.217E3,5.737E3,5.955E3,5.771E3,5.914E3,5.202E3,5.007E3],"tree_param":{"num_deleted":"0","num_feature":"9","num_nodes":"127","size_leaf_vector":"1"}},{"base_weights":[-5.6807485E-6,-6.483585E1,6.3893105E1,-9.702948E1,-3.3147953E1,3.1234844E1,9.599589E1,-1.1320022E2,-8.135484E1,-4.9262627E1,-1.7030159E1,1.5200782E1,4.7207848E1,7.9356255E1,1.1210952E2,-1.2184385E2,-1.0606875E2,-8.992028E1,-7.3787186E1,-5.732266E1,-4.1204628E1,-2.5108248E1,-8.957909E0,6.6171827E0,2.2721672E1,3.914854E1,5.524653E1,7.134555E1,8.7360466E1,1.0355805E2,1.2015404E2,-1.2598098E2,-1.18738365E2,-1.1059787E2,-1.02032295E2,-9.400221E1,-8.633713E1,-7.826332E1,-6.981655E1,-6.1402576E1,-5.323083E1,-4.5249596E1,-3.715128E1,-2.9126228E1,-2.1076742E1,-1.299635E1,-4.911781E0,2.5791044E0,1.00856695E1,1.8192036E1,2.672664E1,3.4605137E1,4.2672325E1,5.1237164E1,5.9247063E1,6.732645E1,7.533315E1,8.275373E1,9.094046E1,9.897484E1,1.0711482E2,1.1500569E2,1.2375903E2,-3.7118464E0,-3.8427556E0,-3.494532E0,-3.6244442E0,-3.2529826E0,-3.375683E0,-3.120832E0,-2.985538E0,-2.7581136E0,-2.8799195E0,-2.5238726E0,-2.6503556E0,-2.2813995E0,-2.405908E0,-2.1550326E0,-2.018546E0,-1.7796868E0,-1.907017E0,-1.5351198E0,-1.6608369E0,-1.4199295E0,-1.2948782E0,-1.0492878E0,-1.1783823E0,-9.378672E-1,-8.0975425E-1,-6.9532055E-1,-5.6912136E-1,-3.245326E-1,-4.5245853E-1,-8.255322E-2,-2.1171911E-1,1.4082979E-1,1.1899358E-2,3.6647746E-1,2.3915526E-1,6.0693634E-1,4.816633E-1,7.39896E-1,8.79184E-1,1.0981957E0,9.758457E-1,1.220284E0,1.3553629E0,1.6039308E0,1.4746687E0,1.8447154E0,1.7138197E0,2.08169E0,1.9549345E0,2.3267977E0,2.1989424E0,2.5442185E0,2.4210255E0,2.667195E0,2.8039517E0,3.0310657E0,2.9053566E0,3.1521044E0,3.289782E0,3.5165205E0,3.3884728E0,3.6366665E0,3.78846E0],"categories":[],"categories_nodes":[],"categories_segments":[],"categories_sizes":[],"default_left":[0,0,0,0,0,0,0,0,0,0,0,0,0,0,0,0,0,0,0,0,0,0,0,0,0,0,0,0,0,0,0,0,0,0,0,0,0,0,0,0,0,0,0,0,0,0,0,0,0,0,0,0,0,0,0,0,0,0,0,0,0,0,0,0,0,0,0,0,0,0,0,0,0,0,0,0,0,0,0,0,0,0,0,0,0,0,0,0,0,0,0,0,0,0,0,0,0,0,0,0,0,0,0,0,0,0,0,0,0,0,0,0,0,0,0,0,0,0,0,0,0,0,0,0,0,0,0],"id":11,"left_children":[1,3,5,7,9,11,13,15,17,19,21,23,25,27,29,31,33,35,37,39,41,43,45,47,49,51,53,55,57,59,61,63,65,67,69,71,73,75,77,79,81,83,85,87,89,91,93,95,97,99,101,103,105,107,109,111,113,115,117,119,121,123,125,-1,-1,-1,-1,-1,-1,-1,-1,-1,-1,-1,-1,-1,-1,-1,-1,-1,-1,-1,-1,-1,-1,-1,-1,-1,-1,-1,-1,-1,-1,-1,-1,-1,-1,-1,-1,-1,-1,-1,-1,-1,-1,-1,-1,-1,-1,-1,-1,-1,-1,-1,-1,-1,-1,-1,-1,-1,-1,-1,-1,-1,-1,-1,-1],"loss_changes":[1.547637E9,1.8916198E8,1.9727315E8,2.3305024E7,2.4271216E7,2.3888656E7,2.5433216E7,2.777664E6,3.02112E6,3.032576E6,3.04644E6,3.005011E6,3.025104E6,2.987232E6,3.303616E6,2.47872E5,4.42336E5,3.12288E5,4.35392E5,3.86688E5,3.81504E5,3.77654E5,3.818195E5,3.044788E5,4.49611E5,3.72148E5,3.72144E5,3.68976E5,3.77536E5,3.704E5,4.46656E5,2.5792E4,4.0704E4,3.648E4,5.5552E4,3.332E4,4.4344E4,4.3848E4,6.2364E4,4.8856E4,4.8388E4,4.875E4,5.2685E4,5.2466E4,5.11435E4,5.2979625E4,5.4091188E4,4.637896E4,5.2564875E4,5.04155E4,6.9354E4,4.1204E4,6.3904E4,5.1566E4,5.2136E4,4.7372E4,4.7364E4,3.624E4,5.9096E4,3.5096E4,5.6896E4,3.3344E4,7.808E4,0E0,0E0,0E0,0E0,0E0,0E0,0E0,0E0,0E0,0E0,0E0,0E0,0E0,0E0,0E0,0E0,0E0,0E0,0E0,0E0,0E0,0E0,0E0,0E0,0E0,0E0,0E0,0E0,0E0,0E0,0E0,0E0,0E0,0E0,0E0,0E0,0E0,0E0,0E0,0E0,0E0,0E0,0E0,0E0,0E0,0E0,0E0,0E0,0E0,0E0,0E0,0E0,0E0,0E0,0E0,0E0,0E0,0E0,0E0,0E0,0E0,0E0,0E0,0E0],"parents":[2147483647,0,0,1,1,2,2,3,3,4,4,5,5,6,6,7,7,8,8,9,9,10,10,11,11,12,12,13,13,14,14,15,15,16,16,17,17,18,18,19,19,20,20,21,21,22,22,23,23,24,24,25,25,26,26,27,27,28,28,29,29,30,30,31,31,32,32,33,33,34,34,35,35,36,36,37,37,38,38,39,39,40,40,41,41,42,42,43,43,44,44,45,45,46,46,47,47,48,48,49,49,50,50,51,51,52,52,53,53,54,54,55,55,56,56,57,57,58,58,59,59,60,60,61,61,62,62],"right_children":[2,4,6,8,10,12,14,16,18,20,22,24,26,28,30,32,34,36,38,40,42,44,46,48,50,52,54,56,58,60,62,64,66,68,70,72,74,76,78,80,82,84,86,88,90,92,94,96,98,100,102,104,106,108,110,112,114,116,118,120,122,124,126,-1,-1,-1,-1,-1,-1,-1,-1,-1,-1,-1,-1,-1,-1,-1,-1,-1,-1,-1,-1,-1,-1,-1,-1,-1,-1,-1,-1,-1,-1,-1,-1,-1,-1,-1,-1,-1,-1,-1,-1,-1,-1,-1,-1,-1,-1,-1,-1,-1,-1,-1,-1,-1,-1,-1,-1,-1,-1,-1,-1,-1,-1,-1,-1],"split_conditions":[-1.1358997E-2,-8.79781E-1,8.522901E-1,-1.3125702E0,-4.45448E-1,4.1962767E-1,1.2847437E0,-1.5433524E0,-1.107131E0,-6.626E-1,-2.3028094E-1,1.9070163E-1,6.340877E-1,1.0676632E0,1.5017649E0,-1.6527318E0,-1.4340303E0,-1.2163726E0,-1.0001235E0,-7.707569E-1,-5.5431587E-1,-3.3714452E-1,-1.20584175E-1,8.176503E-2,2.9812232E-1,5.1373273E-1,7.435449E-1,9.596628E-1,1.1623496E0,1.3801761E0,1.5957881E0,-5.3046532E-2,-5.3046532E-2,-9.534024E-2,-1.3664238E0,-2.57677E-2,-8.029282E-2,-1.3643837E-1,-9.328864E-1,5.457537E-2,2.6487093E-2,-6.086234E-1,-2.57677E-2,-3.920965E-1,-2.8289986E-1,-3.9278533E-2,9.7016233E-4,9.7016233E-4,9.7016233E-4,4.134735E-2,3.666963E-1,4.134735E-2,5.805722E-1,-6.677389E-2,-5.3046532E-2,6.818471E-2,-1.0878729E-1,2.6487093E-2,1.2302256E0,9.7016233E-4,1.4474691E0,-8.029282E-2,1.6638634E0,-3.7118464E0,-3.8427556E0,-3.494532E0,-3.6244442E0,-3.2529826E0,-3.375683E0,-3.120832E0,-2.985538E0,-2.7581136E0,-2.8799195E0,-2.5238726E0,-2.6503556E0,-2.2813995E0,-2.405908E0,-2.1550326E0,-2.018546E0,-1.7796868E0,-1.907017E0,-1.5351198E0,-1.6608369E0,-1.4199295E0,-1.2948782E0,-1.0492878E0,-1.1783823E0,-9.378672E-1,-8.0975425E-1,-6.9532055E-1,-5.6912136E-1,-3.245326E-1,-4.5245853E-1,-8.255322E-2,-2.1171911E-1,1.4082979E-1,1.1899358E-2,3.6647746E-1,2.3915526E-1,6.0693634E-1,4.816633E-1,7.39896E-1,8.79184E-1,1.0981957E0,9.758457E-1,1.220284E0,1.3553629E0,1.6039308E0,1.4746687E0,1.8447154E0,1.7138197E0,2.08169E0,1.9549345E0,2.3267977E0,2.1989424E0,2.5442185E0,2.4210255E0,2.667195E0,2.8039517E0,3.0310657E0,2.9053566E0,3.1521044E0,3.289782E0,3.5165205E0,3.3884728E0,3.6366665E0,3.78846E0],"split_indices":[1,1,1,1,1,1,1,1,1,1,1,1,1,1,1,1,1,1,1,1,1,1,1,1,1,1,1,1,1,1,1,3,3,3,1,3,3,3,1,3,3,1,3,1,1,3,3,3,3,3,1,3,1,3,3,3,3,3,1,3,1,3,1,0,0,0,0,0,0,0,0,0,0,0,0,0,0,0,0,0,0,0,0,0,0,0,0,0,0,0,0,0,0,0,0,0,0,0,0,0,0,0,0,0,0,0,0,0,0,0,0,0,0,0,0,0,0,0,0,0,0,0,0,0,0,0,0],"split_type":[0,0,0,0,0,0,0,0,0,0,0,0,0,0,0,0,0,0,0,0,0,0,0,0,0,0,0,0,0,0,0,0,0,0,0,0,0,0,0,0,0,0,0,0,0,0,0,0,0,0,0,0,0,0,0,0,0,0,0,0,0,0,0,0,0,0,0,0,0,0,0,0,0,0,0,0,0,0,0,0,0,0,0,0,0,0,0,0,0,0,0,0,0,0,0,0,0,0,0,0,0,0,0,0,0,0,0,0,0,0,0,0,0,0,0,0,0,0,0,0,0,0,0,0,0,0,0],"sum_hessian":[3.73592E5,1.85428E5,1.88164E5,9.1979E4,9.3449E4,9.3276E4,9.4888E4,4.527E4,4.6709E4,4.6728E4,4.6721E4,4.655E4,4.6726E4,4.6685E4,4.8203E4,2.0458E4,2.4812E4,2.1905E4,2.4804E4,2.3358E4,2.337E4,2.3351E4,2.337E4,2.174E4,2.481E4,2.3336E4,2.339E4,2.3338E4,2.3347E4,2.3372E4,2.4831E4,8.755E3,1.1703E4,1.168E4,1.3132E4,1.0228E4,1.1677E4,1.1651E4,1.3153E4,1.1689E4,1.1669E4,1.1692E4,1.1678E4,1.1692E4,1.1659E4,1.1695E4,1.1675E4,1.0046E4,1.1694E4,1.1645E4,1.3165E4,1.0198E4,1.3138E4,1.1689E4,1.1701E4,1.1632E4,1.1706E4,1.022E4,1.3127E4,1.0225E4,1.3147E4,1.024E4,1.4591E4,4.264E3,4.491E3,5.639E3,6.064E3,5.524E3,6.156E3,7.299E3,5.833E3,5.049E3,5.179E3,5.582E3,6.095E3,5.447E3,6.204E3,7.304E3,5.849E3,5.976E3,5.713E3,5.945E3,5.724E3,5.843E3,5.849E3,5.784E3,5.894E3,5.837E3,5.855E3,5.832E3,5.827E3,5.723E3,5.972E3,5.819E3,5.856E3,5.101E3,4.945E3,5.822E3,5.872E3,5.954E3,5.691E3,7.32E3,5.845E3,5.185E3,5.013E3,7.323E3,5.815E3,5.635E3,6.054E3,5.671E3,6.03E3,5.936E3,5.696E3,5.572E3,6.134E3,5.089E3,5.131E3,7.29E3,5.837E3,5.173E3,5.052E3,7.313E3,5.834E3,4.907E3,5.333E3,7.3E3,7.291E3],"tree_param":{"num_deleted":"0","num_feature":"9","num_nodes":"127","size_leaf_vector":"1"}},{"base_weights":[-1.2199899E-5,-6.1976604E1,6.289239E1,-9.2666084E1,-2.9759327E1,3.2174618E1,9.408492E1,-1.0834788E2,-7.599087E1,-4.484601E1,-1.4125528E1,1.7104479E1,4.822711E1,7.891989E1,1.0974138E2,-1.162315E2,-9.949325E1,-8.375738E1,-6.8223434E1,-5.2641552E1,-3.7050545E1,-2.1479992E1,-6.336816E0,9.293197E0,2.5398994E1,4.090312E1,5.604674E1,7.160714E1,8.720187E1,1.02889366E2,1.18062775E2,-1.2021966E2,-1.1122959E2,-1.0334217E2,-9.562726E1,-8.7690315E1,-7.982736E1,-7.202779E1,-6.441486E1,-5.6553986E1,-4.871622E1,-4.0924923E1,-3.3171337E1,-2.529862E1,-1.761211E1,-9.756871E0,-2.4303813E0,5.339085E0,1.3735745E1,2.1543802E1,2.9265888E1,3.706052E1,4.4742874E1,5.2672928E1,5.9894398E1,6.771924E1,7.5985344E1,8.379308E1,9.109415E1,9.899783E1,1.07249435E2,1.1509541E2,1.2200487E2,-3.681653E0,-3.5311558E0,-3.276426E0,-3.4013834E0,-3.0362287E0,-3.1615992E0,-2.8055124E0,-2.932534E0,-2.5661044E0,-2.6911113E0,-2.3350668E0,-2.4588447E0,-2.099699E0,-2.224156E0,-1.869761E0,-1.9930172E0,-1.629952E0,-1.7545564E0,-1.4008574E0,-1.5229641E0,-1.1618046E0,-1.2868154E0,-9.341153E-1,-1.0571958E0,-6.936861E-1,-8.177525E-1,-4.6939394E-1,-5.909105E-1,-2.2889084E-1,-3.5406974E-1,-1.31099485E-2,-1.372142E-1,9.05492E-2,2.1876024E-1,4.7243023E-1,3.5511678E-1,7.110274E-1,5.8750415E-1,9.4035834E-1,8.170093E-1,1.1774015E0,1.0562048E0,1.4031025E0,1.2815315E0,1.6463399E0,1.5205681E0,1.8586782E0,1.7337037E0,1.9581759E0,2.0897522E0,2.338897E0,2.2189488E0,2.5811107E0,2.4532077E0,2.7997158E0,2.6732206E0,2.8948956E0,3.029416E0,3.2821946E0,3.155892E0,3.516106E0,3.3904796E0,3.7261486E0,3.5957198E0],"categories":[],"categories_nodes":[],"categories_segments":[],"categories_sizes":[],"default_left":[0,0,0,0,0,0,0,0,0,0,0,0,0,0,0,0,0,0,0,0,0,0,0,0,0,0,0,0,0,0,0,0,0,0,0,0,0,0,0,0,0,0,0,0,0,0,0,0,0,0,0,0,0,0,0,0,0,0,0,0,0,0,0,0,0,0,0,0,0,0,0,0,0,0,0,0,0,0,0,0,0,0,0,0,0,0,0,0,0,0,0,0,0,0,0,0,0,0,0,0,0,0,0,0,0,0,0,0,0,0,0,0,0,0,0,0,0,0,0,0,0,0,0,0,0,0,0],"id":12,"left_children":[1,3,5,7,9,11,13,15,17,19,21,23,25,27,29,31,33,35,37,39,41,43,45,47,49,51,53,55,57,59,61,63,65,67,69,71,73,75,77,79,81,83,85,87,89,91,93,95,97,99,101,103,105,107,109,111,113,115,117,119,121,123,125,-1,-1,-1,-1,-1,-1,-1,-1,-1,-1,-1,-1,-1,-1,-1,-1,-1,-1,-1,-1,-1,-1,-1,-1,-1,-1,-1,-1,-1,-1,-1,-1,-1,-1,-1,-1,-1,-1,-1,-1,-1,-1,-1,-1,-1,-1,-1,-1,-1,-1,-1,-1,-1,-1,-1,-1,-1,-1,-1,-1,-1,-1,-1,-1],"loss_changes":[1.4562158E9,1.8604397E8,1.7766662E8,2.519168E7,2.1651512E7,2.2600168E7,2.1835392E7,3.455104E6,2.811968E6,2.837032E6,2.582357E6,3.121968E6,2.58852E6,2.824416E6,2.568768E6,5.10592E5,3.38272E5,3.53936E5,3.33792E5,3.5594E5,3.49762E5,3.42041E5,2.9252512E5,4.359055E5,3.47774E5,3.43056E5,2.80824E5,4.17464E5,2.83104E5,4.10704E5,2.25024E5,7.7408E4,3.8144E4,4.0448E4,4.3232E4,4.2888E4,4.3312E4,4.5044E4,4.514E4,4.6992E4,4.5942E4,4.8906E4,4.8043E4,4.9114E4,4.69155E4,5.0708375E4,4.3677477E4,5.9500656E4,4.445425E4,4.90405E4,4.8441E4,4.5965E4,4.5958E4,4.8332E4,4.0724E4,5.7888E4,4.0864E4,4.5952E4,3.6952E4,5.54E4,4.0304E4,3.7936E4,2.6504E4,0E0,0E0,0E0,0E0,0E0,0E0,0E0,0E0,0E0,0E0,0E0,0E0,0E0,0E0,0E0,0E0,0E0,0E0,0E0,0E0,0E0,0E0,0E0,0E0,0E0,0E0,0E0,0E0,0E0,0E0,0E0,0E0,0E0,0E0,0E0,0E0,0E0,0E0,0E0,0E0,0E0,0E0,0E0,0E0,0E0,0E0,0E0,0E0,0E0,0E0,0E0,0E0,0E0,0E0,0E0,0E0,0E0,0E0,0E0,0E0,0E0,0E0,0E0,0E0],"parents":[2147483647,0,0,1,1,2,2,3,3,4,4,5,5,6,6,7,7,8,8,9,9,10,10,11,11,12,12,13,13,14,14,15,15,16,16,17,17,18,18,19,19,20,20,21,21,22,22,23,23,24,24,25,25,26,26,27,27,28,28,29,29,30,30,31,31,32,32,33,33,34,34,35,35,36,36,37,37,38,38,39,39,40,40,41,41,42,42,43,43,44,44,45,45,46,46,47,47,48,48,49,49,50,50,51,51,52,52,53,53,54,54,55,55,56,56,57,57,58,58,59,59,60,60,61,61,62,62],"right_children":[2,4,6,8,10,12,14,16,18,20,22,24,26,28,30,32,34,36,38,40,42,44,46,48,50,52,54,56,58,60,62,64,66,68,70,72,74,76,78,80,82,84,86,88,90,92,94,96,98,100,102,104,106,108,110,112,114,116,118,120,122,124,126,-1,-1,-1,-1,-1,-1,-1,-1,-1,-1,-1,-1,-1,-1,-1,-1,-1,-1,-1,-1,-1,-1,-1,-1,-1,-1,-1,-1,-1,-1,-1,-1,-1,-1,-1,-1,-1,-1,-1,-1,-1,-1,-1,-1,-1,-1,-1,-1,-1,-1,-1,-1,-1,-1,-1,-1,-1,-1,-1,-1,-1,-1,-1,-1],"split_conditions":[1.3639959E-2,-8.3865625E-1,8.7935543E-1,-1.2716237E0,-4.0561455E-1,4.5980728E-1,1.3123012E0,-1.4886941E0,-1.0536153E0,-6.222192E-1,-1.9069138E-1,2.443687E-1,6.754789E-1,1.1071733E0,1.5423692E0,-1.5971239E0,-1.38004E0,-1.1613855E0,-9.461918E-1,-7.300755E-1,-5.1379526E-1,-2.973751E-1,-8.181957E-2,1.3667269E-1,3.5346267E-1,5.67938E-1,7.828295E-1,1.0006269E0,1.2164847E0,1.434478E0,1.6499805E0,-1.6662884E0,5.457537E-2,-2.57677E-2,1.4643587E-2,-5.3046532E-2,6.818471E-2,1.4643587E-2,9.7016233E-4,-1.22890756E-1,1.4643587E-2,-1.0878729E-1,2.6487093E-2,-9.534024E-2,5.457537E-2,-2.57677E-2,5.457537E-2,6.9470584E-2,-5.3046532E-2,-6.677389E-2,-2.57677E-2,-1.22890756E-1,9.7016233E-4,-1.0878729E-1,2.6487093E-2,9.3295616E-1,9.7016233E-4,-8.029282E-2,-9.534024E-2,1.3665186E0,-5.3046532E-2,-3.9278533E-2,-6.677389E-2,-3.681653E0,-3.5311558E0,-3.276426E0,-3.4013834E0,-3.0362287E0,-3.1615992E0,-2.8055124E0,-2.932534E0,-2.5661044E0,-2.6911113E0,-2.3350668E0,-2.4588447E0,-2.099699E0,-2.224156E0,-1.869761E0,-1.9930172E0,-1.629952E0,-1.7545564E0,-1.4008574E0,-1.5229641E0,-1.1618046E0,-1.2868154E0,-9.341153E-1,-1.0571958E0,-6.936861E-1,-8.177525E-1,-4.6939394E-1,-5.909105E-1,-2.2889084E-1,-3.5406974E-1,-1.31099485E-2,-1.372142E-1,9.05492E-2,2.1876024E-1,4.7243023E-1,3.5511678E-1,7.110274E-1,5.8750415E-1,9.4035834E-1,8.170093E-1,1.1774015E0,1.0562048E0,1.4031025E0,1.2815315E0,1.6463399E0,1.5205681E0,1.8586782E0,1.7337037E0,1.9581759E0,2.0897522E0,2.338897E0,2.2189488E0,2.5811107E0,2.4532077E0,2.7997158E0,2.6732206E0,2.8948956E0,3.029416E0,3.2821946E0,3.155892E0,3.516106E0,3.3904796E0,3.7261486E0,3.5957198E0],"split_indices":[1,1,1,1,1,1,1,1,1,1,1,1,1,1,1,1,1,1,1,1,1,1,1,1,1,1,1,1,1,1,1,1,3,3,3,3,3,3,3,3,3,3,3,3,3,3,3,1,3,3,3,3,3,3,3,1,3,3,3,1,3,3,3,0,0,0,0,0,0,0,0,0,0,0,0,0,0,0,0,0,0,0,0,0,0,0,0,0,0,0,0,0,0,0,0,0,0,0,0,0,0,0,0,0,0,0,0,0,0,0,0,0,0,0,0,0,0,0,0,0,0,0,0,0,0,0,0],"split_type":[0,0,0,0,0,0,0,0,0,0,0,0,0,0,0,0,0,0,0,0,0,0,0,0,0,0,0,0,0,0,0,0,0,0,0,0,0,0,0,0,0,0,0,0,0,0,0,0,0,0,0,0,0,0,0,0,0,0,0,0,0,0,0,0,0,0,0,0,0,0,0,0,0,0,0,0,0,0,0,0,0,0,0,0,0,0,0,0,0,0,0,0,0,0,0,0,0,0,0,0,0,0,0,0,0,0,0,0,0,0,0,0,0,0,0,0,0,0,0,0,0,0,0,0,0,0,0],"sum_hessian":[3.73592E5,1.88166E5,1.85426E5,9.6367E4,9.1799E4,9.3425E4,9.2001E4,4.966E4,4.6707E4,4.6716E4,4.5083E4,4.8188E4,4.5237E4,4.6737E4,4.5264E4,2.6264E4,2.3396E4,2.335E4,2.3357E4,2.3355E4,2.3361E4,2.3187E4,2.1896E4,2.4818E4,2.337E4,2.3362E4,2.1875E4,2.4826E4,2.1911E4,2.4831E4,2.0433E4,1.46E4,1.1664E4,1.1711E4,1.1685E4,1.166E4,1.169E4,1.1676E4,1.1681E4,1.169E4,1.1665E4,1.1683E4,1.1678E4,1.1665E4,1.1522E4,1.1674E4,1.0222E4,1.3132E4,1.1686E4,1.1706E4,1.1664E4,1.1682E4,1.168E4,1.1663E4,1.0212E4,1.3158E4,1.1668E4,1.1693E4,1.0218E4,1.3133E4,1.1698E4,1.1675E4,8.758E3,7.294E3,7.306E3,6.047E3,5.617E3,5.754E3,5.957E3,5.884E3,5.801E3,5.655E3,6.005E3,6.066E3,5.624E3,5.958E3,5.718E3,5.756E3,5.925E3,5.449E3,6.241E3,5.885E3,5.78E3,5.53E3,6.153E3,5.896E3,5.782E3,5.534E3,6.131E3,5.935E3,5.587E3,5.725E3,5.949E3,5.297E3,4.925E3,6.002E3,7.13E3,5.67E3,6.016E3,5.568E3,6.138E3,5.758E3,5.906E3,5.351E3,6.331E3,5.826E3,5.854E3,5.516E3,6.147E3,5.144E3,5.068E3,5.833E3,7.325E3,5.877E3,5.791E3,5.519E3,6.174E3,4.793E3,5.425E3,5.829E3,7.304E3,5.679E3,6.019E3,5.77E3,5.905E3,4.298E3,4.46E3],"tree_param":{"num_deleted":"0","num_feature":"9","num_nodes":"127","size_leaf_vector":"1"}},{"base_weights":[-2.886746E-6,-6.1005745E1,6.0118687E1,-9.1299194E1,-3.1188166E1,2.8908213E1,8.986175E1,-1.0700444E2,-7.7003914E1,-4.683655E1,-1.6487099E1,1.3805477E1,4.3456818E1,7.373062E1,1.050326E2,-1.1466006E2,-1.0029726E2,-8.505059E1,-6.942581E1,-5.4416756E1,-3.971954E1,-2.456363E1,-8.884305E0,6.219692E0,2.087916E1,3.5891663E1,5.1020763E1,6.619743E1,8.125421E1,9.649137E1,1.1261669E2,-1.18546295E2,-1.1174289E2,-1.040632E2,-9.6524994E1,-8.885974E1,-8.123546E1,-7.363863E1,-6.568875E1,-5.828042E1,-5.1011745E1,-4.3499367E1,-3.594569E1,-2.8351608E1,-2.0780998E1,-1.3267685E1,-5.101266E0,2.438798E0,9.46727E0,1.7116879E1,2.4632557E1,3.2124554E1,3.9658276E1,4.672828E1,5.4352295E1,6.2467457E1,6.992205E1,7.7444756E1,8.505508E1,9.2725624E1,1.00243385E2,1.0780151E2,1.1647015E2,-3.4941375E0,-3.621209E0,-3.287107E0,-3.4114034E0,-3.0607145E0,-3.1762903E0,-2.834278E0,-2.9573894E0,-2.6089067E0,-2.7244275E0,-2.3779166E0,-2.4970279E0,-2.146472E0,-2.2638423E0,-2.02695E0,-1.9000384E0,-1.6859804E0,-1.8047069E0,-1.469079E0,-1.5875722E0,-1.2438194E0,-1.3664023E0,-1.0181776E0,-1.1411456E0,-7.874379E-1,-9.092748E-1,-5.610798E-1,-6.816228E-1,-3.3298373E-1,-4.532887E-1,-2.1222349E-1,-8.1292525E-2,1.3423933E-1,1.0147385E-2,3.4422112E-1,2.2247577E-1,5.767101E-1,4.5829707E-1,8.001169E-1,6.755643E-1,1.020704E0,9.044783E-1,1.2517865E0,1.1289773E0,1.4606873E0,1.3404064E0,1.6902438E0,1.5672246E0,1.9342513E0,1.8101361E0,2.1586363E0,2.03481E0,2.3798056E0,2.2644975E0,2.61419E0,2.4885485E0,2.8431828E0,2.7210083E0,3.069301E0,2.9399056E0,3.2932768E0,3.1721919E0,3.4356134E0,3.5812476E0],"categories":[],"categories_nodes":[],"categories_segments":[],"categories_sizes":[],"default_left":[0,0,0,0,0,0,0,0,0,0,0,0,0,0,0,0,0,0,0,0,0,0,0,0,0,0,0,0,0,0,0,0,0,0,0,0,0,0,0,0,0,0,0,0,0,0,0,0,0,0,0,0,0,0,0,0,0,0,0,0,0,0,0,0,0,0,0,0,0,0,0,0,0,0,0,0,0,0,0,0,0,0,0,0,0,0,0,0,0,0,0,0,0,0,0,0,0,0,0,0,0,0,0,0,0,0,0,0,0,0,0,0,0,0,0,0,0,0,0,0,0,0,0,0,0,0,0],"id":13,"left_children":[1,3,5,7,9,11,13,15,17,19,21,23,25,27,29,31,33,35,37,39,41,43,45,47,49,51,53,55,57,59,61,63,65,67,69,71,73,75,77,79,81,83,85,87,89,91,93,95,97,99,101,103,105,107,109,111,113,115,117,119,121,123,125,-1,-1,-1,-1,-1,-1,-1,-1,-1,-1,-1,-1,-1,-1,-1,-1,-1,-1,-1,-1,-1,-1,-1,-1,-1,-1,-1,-1,-1,-1,-1,-1,-1,-1,-1,-1,-1,-1,-1,-1,-1,-1,-1,-1,-1,-1,-1,-1,-1,-1,-1,-1,-1,-1,-1,-1,-1,-1,-1,-1,-1,-1,-1,-1],"loss_changes":[1.3701878E9,1.67491E8,1.7467002E8,2.064224E7,2.1497216E7,2.0174216E7,2.357056E7,2.238848E6,2.930528E6,2.439864E6,2.958543E6,2.417388E6,2.674288E6,2.64136E6,3.205312E6,2.18688E5,3.21936E5,3.32128E5,3.8568E5,2.8536E5,3.31512E5,3.34183E5,4.11543E5,2.6692906E5,3.28789E5,3.3054E5,3.31852E5,3.19888E5,3.31648E5,3.20752E5,4.75296E5,2.52E4,3.7664E4,3.2384E4,3.9896E4,3.536E4,3.9424E4,3.8984E4,5.3816E4,3.6684E4,4.2824E4,4.6784E4,4.7789E4,4.7266E4,4.6719E4,4.57525E4,6.284953E4,4.2963496E4,4.8059875E4,4.486E4,4.96635E4,4.2848E4,4.7396E4,3.8894E4,5.2328E4,4.6008E4,4.4812E4,3.7128E4,4.4E4,3.9784E4,4.424E4,3.6016E4,6.896E4,0E0,0E0,0E0,0E0,0E0,0E0,0E0,0E0,0E0,0E0,0E0,0E0,0E0,0E0,0E0,0E0,0E0,0E0,0E0,0E0,0E0,0E0,0E0,0E0,0E0,0E0,0E0,0E0,0E0,0E0,0E0,0E0,0E0,0E0,0E0,0E0,0E0,0E0,0E0,0E0,0E0,0E0,0E0,0E0,0E0,0E0,0E0,0E0,0E0,0E0,0E0,0E0,0E0,0E0,0E0,0E0,0E0,0E0,0E0,0E0,0E0,0E0,0E0,0E0],"parents":[2147483647,0,0,1,1,2,2,3,3,4,4,